tree
version=v4
num_class=5
num_tree_per_iteration=5
label_index=0
max_feature_idx=12
objective=multiclass num_class:5
feature_names=mfcc_1 mfcc_2 mfcc_3 mfcc_4 mfcc_5 mfcc_6 mfcc_7 mfcc_8 mfcc_9 mfcc_10 mfcc_11 mfcc_12 mfcc_13
feature_infos=[-669.69920000000002:-19.098589] [-55.111274999999999:265.11374000000001] [-154.96755999999999:103.629364] [-79.259609999999995:101.588295] [-57.502803999999998:71.957939999999994] [-45.141674000000002:54.047702999999998] [-60.425370000000001:41.180472999999999] [-39.057774000000002:59.446334999999998] [-27.638762:49.688698000000002] [-39.454903000000002:45.833427] [-48.286470000000001:37.154525999999997] [-30.628284000000001:37.678085000000003] [-26.680294:34.902484999999999]
tree_sizes=3298 3301 3300 3278 3303 3351 3372 3341 3325 3355 3356 3378 3377 3345 3344 3370 3383 3365 3339 3360 3372 3379 3363 3350 3366 3389 3388 3372 3354 3358 3374 3378 3380 3360 3373 3377 3377 3387 3361 3352 3373 3398 3387 3373 3370 3382 3387 3393 3352 3372 3373 3392 3411 3371 3380 3394 3404 3380 3384 3375 3392 3395 3375 3389 3393 3385 3377 3411 3375 3382 3368 3381 3417 3375 3384 3397 3388 3416 3368 3366 3387 3391 3411 3375 3388 3379 3398 3399 3387 3398 3404 3407 3414 3363 3379 3385 3395 3405 3375 3385 3401 3386 3406 3382 3379 3387 3388 3395 3391 3373 3405 3406 3418 3383 3390 3397 3396 3391 3391 3402 3409 3416 3391 3383 3389 3393 3406 3409 3390 3404 3389 3414 3403 3399 3394 3405 3387 3398 3388 3390 3411 3418 3396 3384 3387 3381 3419 3396 3383 3412 3400 3405 3391 3395 3410 3401 3418 3414 3396 3393 3394 3411 3410 3411 3383 3420 3421 3410 3381 3401 3404 3399 3400 3396 3386 3420 3415 3400 3393 3397 3400 3401 3399 3406 3393 3411 3419 3401 3377 3412 3407 3416 3392 3397 3391 3420 3378 3419 3400 3408 3413 3410 3420 3397 3379 3407 3424 3403 3407 3399 3405 3399 3374 3406 3380 3420 3376 3396 3390 3382 3390 3428 3393 3406 3394 3418 3392 3397 3388 3387 3384 3417 3414 3395 3378 3417 3408 3405 3401 3382 3414 3425 3393 3388 3405 3411 3412 3396 3408 3384 3434 3416 3390 3415 3392 3409 3410 3392 3399 3397 3410 3421 3387 3421 3416 3400 3400 3415 3403 3393 3396 3418 3411 3442 3407 3427 3402 3411 3424 3391 3410 3420 3425 3427 3371 3419 3432 3388 3430 3387 3403 3403 3401 3439 3353 3430 3422 3384 3438 3405 3437 3412 3390 3450 3374 3423 3418 3415 3445 3409 3428 3398 3427 3433 3405 3429 3412 3396 3439 3410 3417 3407 3420 3438 3441 3442 3412 3403 3447 3415 3419 3415 3390 3451 3406 3400 3421 3407 3474 3426 3415 3413 3394 3451 3430 3432 3432 3404 3439 3433 3437 3403 3379 3444 3395 3419 3424 3399 3449 3413 3427 3415 3390 3471 3417 3427 3415 3429 3460 3418 3430 3399 3399 3453 3415 3435 3410 3368 3476 3389 3445 3402 3418 3450 3407 3444 3411 3403 3465 3422 3430 3415 3397 3447 3419 3437 3420 3386 3478 3406 3430 3416 3408 3452 3408 3427 3426 3399 3469 3415 3430 3410 3402 3450 3430 3421 3411 3420 3434 3421 3459 3402 3373 3454 3438 3439 3429 3433 3460 3418 3423 3398 3400 3463 3416 3442 3395 3411 3465 3435 3455 3417 3395 3441 3423 3431 3436 3400 3473 3430 3460 3378 3407 3458 3395 3425 3411 3439 3490 3427 3438 3434 3431 3461 3413 3443 3415 3396 3471 3423 3469 3433 3402 3466 3415 3446 3372 3425 3482 3436 3469 3417 3425 3475 3450 3444 3420 3414 3479 3418 3432 3412 3407 3466 3413 3459 3413 3397 3480 3404

Tree=0
num_leaves=31
num_cat=0
split_feature=4 1 11 10 7 1 7 12 4 4 10 2 4 10 8 3 5 2 2 1 0 12 1 0 4 6 0 5 0 4
split_gain=4534.7 870.325 428.197 310.395 294.439 187.905 205.857 184.795 140.202 82.2606 72.9074 65.2251 62.4237 56.1262 50.1882 60.838 69.4516 47.3943 44.2554 41.4892 40.1165 65.972 32.059 29.6386 28.1063 68.4044 27.0487 23.1331 21.3821 26.0117
threshold=18.836159000000006 98.564367500000017 7.4272387000000011 -17.609178499999995 18.897876000000004 155.35982500000003 19.609856500000003 1.8170107500000003 -9.8018214999999973 29.681471000000002 -1.3165647499999997 -9.8015149999999984 -0.20244732499999998 -25.510545499999996 20.218023000000006 12.462123000000002 14.556477500000002 33.63607600000001 13.364397000000002 171.31271500000003 -430.22956999999991 -0.25417001999999994 188.30118500000003 -424.83156999999994 32.457087500000007 -26.644305499999998 -361.79024999999996 23.071978000000005 -374.6627049999999 -13.021822499999997
decision_type=2 2 2 2 2 2 2 2 2 2 2 2 2 2 2 2 2 2 2 2 2 2 2 2 2 2 2 2 2 2
left_child=1 4 3 24 7 6 10 14 -8 20 11 12 26 -9 15 23 -17 22 -10 -11 21 -5 -4 -1 25 -2 -3 -6 -13 -30
right_child=2 5 17 9 27 -7 8 13 18 19 -12 28 -14 -15 -16 16 -18 -19 -20 -21 -22 -23 -24 -25 -26 -27 -28 -29 29 -31
leaf_value=-1.0031380264889771 -1.0002380403972821 -1.0957534553221522 -0.99513708910289522 -1.0152657990121283 -1.0003868955893729 -1.374050800277657 -1.362183923555959 -1.0550002116208743 -1.0063800442937167 -1.0746884340846674 -1.3697205001689214 -1.3684248292971501 -1.0822689261562883 -1.3711261987281933 -0.99981352744206042 -1.103670877667732 -1.3357109872647517 -1.3066514914762657 -1.2434839637392849 -1.3688444851247377 -1.3405649391805459 -1.3302437989627087 -1.2180131864259862 -1.2055093502903669 -0.99757347753074321 -1.2596926402113842 -1.3179194592309846 -1.1810394774228106 -1.1283835862586484 -1.3188281663079782
leaf_weight=20.888694345951084 26.17378568649292 6.5434464216232291 471.63148438930511 11.325195729732515 77.514672994613647 1789.6325963139534 20.88869434595108 6.0401043891906729 39.764020562171936 27.935482800006866 213.41702175140381 62.162741005420685 25.670443654060364 80.031383156776428 18.120313167572021 20.88869434595108 33.723916172981262 5.0334203243255606 9.8151696324348432 5.7884333729743949 79.024699091911316 16.106945037841797 6.5434464216232291 11.073524713516234 68.202845394611359 16.610287070274353 33.723916172981262 7.8018015027046195 9.311827600002287 31.207206010818481
leaf_count=83 104 26 1874 45 308 7111 83 24 158 111 848 247 102 318 72 83 134 20 39 23 314 64 26 44 271 66 134 31 37 124
internal_value=-1.2751 -1.33886 -1.05645 -1.16237 -1.17133 -1.35949 -1.30192 -1.24039 -1.14488 -1.26128 -1.33089 -1.28174 -1.20413 -1.34894 -1.15115 -1.18283 -1.24696 -1.0014 -1.05332 -1.12518 -1.3044 -1.20021 -0.998187 -1.07325 -1.03743 -1.10097 -1.28182 -1.01691 -1.33158 -1.27506
internal_weight=3252.6 2518.22 734.376 251.168 276.083 2242.14 452.504 190.767 70.4679 140.181 382.037 168.62 65.9378 86.0715 104.695 86.5748 54.6126 483.208 49.5792 33.7239 106.457 27.4321 478.175 31.9622 110.987 42.7841 40.2674 85.3165 102.682 40.519
internal_count=12924 10006 2918 998 1097 8909 1798 758 280 557 1518 670 262 342 416 344 217 1920 197 134 423 109 1900 127 441 170 160 339 408 161
is_linear=0
shrinkage=1


Tree=1
num_leaves=31
num_cat=0
split_feature=1 3 7 2 9 1 0 1 10 1 1 5 2 5 1 2 3 8 3 1 7 3 8 9 9 0 0 6 8 9
split_gain=2137.82 1362.66 303.506 274.596 397.532 220.887 230.871 200.485 185.052 129.759 91.8285 88.2169 119.37 78.478 77.7309 77.6522 84.4648 54.8617 101.61 46.7032 43.2824 40.789 39.4176 37.9218 37.2925 80.2611 35.6566 34.5864 31.9725 32.1174
threshold=147.21562000000003 6.9483878500000005 21.417234500000003 -89.785719999999984 -3.5435558499999997 194.04486000000003 -165.07690499999998 201.06125500000005 -5.4087376499999991 179.51407000000003 185.06829000000002 20.323230000000006 9.2935410000000012 8.522785500000003 128.71262500000003 -79.147651999999979 21.227880500000001 11.597157500000002 21.227880500000001 211.71940000000004 -16.598326999999994 33.953877500000011 1.5773449500000003 2.5367009000000005 -1.2250975999999998 -197.80515499999998 -189.55575499999995 3.1011184500000004 15.843853500000002 5.5556515000000006
decision_type=2 2 2 2 2 2 2 2 2 2 2 2 2 2 2 2 2 2 2 2 2 2 2 2 2 2 2 2 2 2
left_child=14 8 3 5 9 -3 20 11 10 13 -2 12 28 -5 -1 16 26 18 -16 -10 -7 -8 -12 -20 25 -21 -11 -22 29 -6
right_child=1 2 -4 4 7 6 21 -9 19 15 22 -13 -14 -15 17 -17 -18 -19 23 24 27 -23 -24 -25 -26 -27 -28 -29 -30 -31
leaf_value=-1.3291106951567202 -1.3000473013929237 -1.3050399166081892 -1.3223799663801876 -1.2666346435759142 -1.1222789583797605 -1.0032059456080633 -1.2564022748806503 -1.2507893652327715 -1.3179223583190849 -1.0481803198657589 -0.99541700921122267 -1.0336395947849735 -1.0156970656678581 -1.0137757328813199 -1.2888426299990434 -0.9668034617163197 -0.98934315771606496 -1.3266856196153354 -1.2141794895581863 -1.0361315996441811 -1.1853945646079151 -1.1215882842227296 -1.165347920446119 -1.0355003389435768 -1.3029887547627566 -1.2839966936347016 -1.2208534136898015 -1.0205010895907891 -1.3250143010296545 -1.2129262337394275
leaf_weight=1093.3630932271481 24.724944978952408 87.708489030599594 59.860393106937408 28.889146238565445 83.284025192260742 101.76266828179359 94.735578656196594 109.05002048611641 414.33802533149719 18.999168246984482 31.752034604549408 139.24047961831093 62.202756315469742 21.341531455516815 89.530327081680298 359.68288379907608 72.873522043228149 87.448226451873779 20.300481140613556 21.60179403424263 29.930196553468704 29.409671396017075 23.944157242774963 28.62888365983963 54.394878953695297 33.053347498178482 32.272559762001038 22.12231919169426 13.533654093742369 73.654309779405594
leaf_count=4201 95 337 230 111 320 391 364 419 1592 73 122 535 239 82 344 1382 280 336 78 83 115 113 92 110 209 127 124 85 52 283
internal_value=-1.21884 -1.15479 -1.10194 -1.09238 -1.06561 -1.16668 -1.12302 -1.13156 -1.2809 -1.00622 -1.13967 -1.0966 -1.13427 -1.1592 -1.31808 -0.99034 -1.05853 -1.26468 -1.22551 -1.3026 -1.04114 -1.22447 -1.06847 -1.10963 -1.24437 -1.18603 -1.15687 -1.11531 -1.17754 -1.16482
internal_weight=3363.63 2044.36 1440.55 1380.69 1015.02 365.669 277.96 480.965 603.809 534.059 80.4211 371.915 232.675 50.2307 1319.27 483.828 124.145 225.908 138.46 523.388 153.815 124.145 55.6962 48.9294 109.05 54.6551 51.2717 52.0525 170.472 156.938
internal_count=12924 7855 5535 5305 3900 1405 1068 1848 2320 2052 309 1429 894 193 5069 1859 477 868 532 2011 591 477 214 188 419 210 197 200 655 603
is_linear=0
shrinkage=1


Tree=2
num_leaves=31
num_cat=0
split_feature=11 1 7 2 1 10 2 3 3 1 9 11 3 0 1 3 1 2 2 11 1 3 1 8 7 5 2 11 4 4
split_gain=526.883 1028.68 456.278 376.074 712.843 286.736 184.86 121.488 118.489 111.79 101.918 105.601 99.9472 96.4806 92.6094 87.0251 135.723 78.2061 69.1769 64.7124 63.3968 69.6251 60.5849 48.1222 48.6134 83.4444 50.4739 45.784 44.9316 40.9836
threshold=5.8566968000000008 149.20500500000003 18.593510500000004 -84.744197999999997 209.91491500000004 -23.288984499999994 -14.359485499999998 33.055479000000012 7.543434200000001 182.00848000000005 13.283794000000002 -0.29711067499999994 8.1347970000000025 -196.19488999999996 84.308393000000009 12.462123000000002 89.034627500000013 -63.852727999999992 -73.774686999999986 10.942880500000001 196.22645500000002 7.853380650000001 218.62639000000004 15.843853500000002 21.881958000000001 8.7519805000000019 -6.7445084999999994 1.8603254000000002 13.733951500000002 33.174980500000011
decision_type=2 2 2 2 2 2 2 2 2 2 2 2 2 2 2 2 2 2 2 2 2 2 2 2 2 2 2 2 2 2
left_child=1 2 5 4 7 -1 14 20 9 10 11 28 22 15 -7 16 -8 -16 -11 23 -3 -22 -6 -2 25 -25 -27 -18 -5 -17
right_child=19 3 -4 8 12 6 13 -9 -10 18 -12 -13 -14 -15 17 29 27 -19 -20 -21 21 -23 -24 24 -26 26 -28 -29 -30 -31
leaf_value=-1.6566841323868853 -1.6662150151276029 -1.3136147757125476 -1.6761289697299875 -1.3383427406921227 -1.3191217561106288 -1.2812411108216879 -1.6707043586968349 -1.5747565510479473 -1.6877631478973936 -1.526560291008265 -1.7113889414454797 -1.6146529800831715 -1.6965711844590443 -1.7157964379099162 -1.3684204202684003 -1.2655537221582462 -1.3107565077189431 -1.6227492903273675 -1.6945544549496077 -1.7030928688550611 -1.3336478712187718 -1.5515955892348299 -1.6092151597699058 -1.6457822727617359 -1.7101508806408627 -1.5483115722613283 -1.2514065831570131 -1.5559245206999004 -1.6320540050856223 -1.5042366076169629
leaf_weight=40.600684583187103 225.89106373488903 91.74958623945713 75.628726184368134 40.799707546830177 11.344308927655222 14.727699309587477 15.523791164159773 34.03292678296566 652.79532074928284 30.649536401033401 22.68861785531044 30.649536401033401 192.45520584285259 6.3687348365783683 16.120860055088997 147.47601605951786 58.512751311063766 48.362580165266991 122.39912264049053 527.41085365414619 28.261260837316513 30.450513437390327 19.70327340066433 24.280801564455032 17.713043764233589 10.150171145796778 13.135515600442885 8.7570104002952558 5.9706889092922202 7.5628726184368125
leaf_count=204 1135 461 380 205 57 74 78 171 3280 154 114 154 967 32 81 741 294 243 615 2650 142 153 99 122 89 51 66 44 30 38
internal_value=-1.61596 -1.58504 -1.45263 -1.62934 -1.54962 -1.40619 -1.37475 -1.40413 -1.66524 -1.60717 -1.525 -1.47038 -1.66971 -1.33169 -1.50749 -1.3214 -1.40418 -1.55917 -1.66091 -1.6822 -1.36554 -1.44669 -1.50322 -1.64436 -1.56874 -1.51608 -1.38083 -1.34267 -1.37584 -1.2772
internal_weight=2572.17 1753.59 439.642 1313.95 407.997 364.013 323.412 184.494 905.953 253.157 100.109 77.4199 223.503 244.201 79.2111 237.832 82.7936 64.4834 153.049 818.581 150.461 58.7118 31.0476 291.171 65.2795 47.5665 23.2857 67.2698 46.7704 155.039
internal_count=12924 8811 2209 6602 2050 1829 1625 927 4552 1272 503 389 1123 1227 398 1195 416 324 769 4113 756 295 156 1463 328 239 117 338 235 779
is_linear=0
shrinkage=1


Tree=3
num_leaves=31
num_cat=0
split_feature=3 10 3 11 9 3 9 11 5 9 5 12 11 9 8 9 11 5 4 9 10 9 7 5 9 5 4 5 5 2
split_gain=4313.71 1206.77 630.191 344.958 325.052 188.339 352.973 213.323 114.978 98.8403 91.0694 88.7763 71.9528 62.6845 58.1721 101.52 45.1402 60.1804 41.8169 23.1013 19.9193 18.4007 49.3882 19.6871 17.3883 126.476 77.1572 13.5029 10.7205 10.313
threshold=-16.413242999999998 7.5571854500000013 20.769113500000003 1.4421296500000003 -6.5914516999999995 9.0190515000000016 14.626107000000003 3.1661558000000007 -3.3207467499999996 15.844575000000003 7.8807325000000015 8.2277485000000024 -0.077281562999999984 -13.991734999999997 11.597157500000002 6.5774693000000015 8.1492000000000022 10.789994500000001 3.1436756000000003 1.8426063500000003 -2.0083995999999993 -2.7971839999999992 1.4013219000000003 7.8807325000000015 10.848439000000001 12.571688500000002 8.0266330000000021 -11.138016499999997 2.6271901000000004 54.528320500000007
decision_type=2 2 2 2 2 2 2 2 2 2 2 2 2 2 2 2 2 2 2 2 2 2 2 2 2 2 2 2 2 2
left_child=4 5 3 9 12 6 7 14 13 28 -8 -10 -1 -9 -2 27 17 19 20 -5 -6 -4 -23 -24 -7 26 -26 -16 -3 -22
right_child=1 2 21 16 18 24 10 8 11 -11 -12 -13 -14 -15 15 -17 -18 -19 -20 -21 29 22 23 -25 25 -27 -28 -29 -30 -31
leaf_value=-2.1489316851621139 -2.1814427949117055 -2.0127227928954619 -2.2003312671495299 -1.7715118974259456 -1.6615582128814363 -2.1970014577045722 -1.4686582175586635 -2.0877661825970888 -2.1306481195694476 -1.579282524791235 -2.0979993721018562 -1.64286608650887 -1.5624624546856978 -1.5411663576082089 -1.9501866348107724 -1.5499552230687599 -1.4667610532122741 -1.9892717336137031 -1.8000998554075176 -1.4799147260139076 -1.4550162916681564 -1.7200535730591155 -1.9001577083430208 -2.2003312671495299 -1.5597169648185649 -2.1932248855489971 -2.1703139112688792 -2.1732071503899055 -2.2003312671495299 -1.6375058443873252
leaf_weight=9.7277056425809842 195.88667526841164 4.2641997337341335 24.918917194008827 3.7311747670173672 5.1969934254884711 1141.2064537405968 10.660499334335325 2.6651248335838309 18.655873835086826 3.8644310086965552 2.9316373169422141 4.6639684587717047 2.6651248335838309 9.8609618842601758 3.5979185253381738 3.9976872503757468 35.579416528344154 4.26419973373413 3.9976872503757468 9.9942181259393674 97.676825150847435 3.3314060419797924 2.6651248335838309 12.126317992806433 5.4635059088468534 70.359295606613159 3.3314060419797897 11.060268059372902 10.660499334335325 3.1981498003005973
leaf_count=73 1470 32 187 28 39 8564 80 20 140 29 22 35 20 74 27 30 267 32 30 75 733 25 20 91 41 528 25 83 80 24
internal_value=-2.10929 -2.15307 -1.84158 -1.66135 -1.53727 -2.17729 -2.1007 -2.12764 -1.90183 -2.03002 -1.6044 -2.03309 -2.02281 -1.65746 -2.16537 -1.99664 -1.53203 -1.66113 -1.4826 -1.55918 -1.47064 -2.14457 -2.0679 -2.14625 -2.19386 -2.14853 -1.791 -2.11847 -2.14673 -1.4608
internal_weight=1722.2 1599.74 115.4 72.3581 122.462 1484.34 263.981 250.388 35.8459 18.7891 13.5921 23.3198 12.3928 12.5261 214.543 18.6559 53.569 17.9896 110.07 13.7254 106.072 43.0418 18.1228 14.7914 1220.36 79.1542 8.79491 14.6582 14.9247 100.875
internal_count=12924 12005 866 543 919 11139 1981 1879 269 141 102 175 93 94 1610 140 402 135 826 103 796 323 136 111 9158 594 66 110 112 757
is_linear=0
shrinkage=1


Tree=4
num_leaves=31
num_cat=0
split_feature=1 7 0 2 0 1 10 12 5 9 5 0 1 6 3 0 1 9 0 1 11 4 5 1 7 6 4 1 9 2
split_gain=936.755 689.64 529.758 306.404 393.589 294.237 168.615 161.312 135.616 123.219 154.874 132.217 99.7677 88.1839 79.9973 79.5915 72.6963 107.813 47.7228 47.5871 46.6394 47.9265 43.8375 73.0924 47.9912 58.9842 42.3867 37.9624 39.9801 36.4461
threshold=163.68624000000003 27.643339500000003 -165.07690499999998 -41.401418999999997 -374.6627049999999 209.91491500000004 7.5571854500000013 0.8372657750000001 -2.3348501499999994 -4.1851596499999983 20.323230000000006 -270.19997999999993 228.74612500000003 -2.1466656499999996 9.6514700000000015 -186.53931499999996 210.49782500000003 6.5774693000000015 -132.60862999999998 218.62639000000004 -4.1281792499999996 -24.518180999999995 -3.8395392499999996 207.17452000000003 -19.923877499999996 6.7183178000000003 11.880395250000001 195.16644000000005 9.5697120000000009 -83.992094999999992
decision_type=2 2 2 2 2 2 2 2 2 2 2 2 2 2 2 2 2 2 2 2 2 2 2 2 2 2 2 2 2 2
left_child=-1 2 3 15 -5 -4 9 -3 12 -6 11 16 14 -13 -7 -2 -11 -18 -10 26 -16 -22 23 -17 -25 -26 -15 28 -12 -14
right_child=1 7 5 4 6 8 -8 -9 18 10 27 13 29 19 20 22 17 -19 -20 -21 21 -23 -24 24 25 -27 -28 -29 -30 -31
leaf_value=-2.3376963533493491 -2.3102457273779105 -1.4975314650574745 -2.2047166456402789 -2.3217336102065906 -2.2955221153722065 -2.254517770446383 -2.3160257972345484 -2.3431949869814681 -2.1902267884584461 -2.1697070486606944 -2.2691687888304406 -2.1436712497775261 -1.5914611092664983 -1.7918760636090512 -2.0812561319855236 -2.2996400378367938 -1.7449832775988376 -2.2386492159085254 -1.8140077056045258 -1.5618636763600029 -2.0452395394235814 -1.6803497165146308 -2.2897100898880556 -2.2503257565738153 -1.9558912520606626 -2.2959004714960893 -2.1794832026090027 -1.9071626247016333 -1.996902941393609 -1.9686224243372672
leaf_weight=709.26710212230682 297.42701268196106 17.737550914287571 44.050209224224091 83.871598362922668 14.683403074741362 5.6384267807006863 22.083838224411011 2.5842789411544791 15.035804748535158 24.785584390163422 24.315715491771702 7.5179023742675772 20.086895406246189 37.002175748348236 6.1082956790924099 25.255453288555145 13.038861930370333 6.6956318020820609 4.3462873101234427 8.5751073956489545 4.6986889839172425 15.388206422328944 44.872479796409607 12.921394705772398 26.077723860740662 6.3432301282882682 3.0541478395462027 4.8161562085151663 6.9305662512779227 2.9366806149482718
leaf_count=6038 2532 151 375 714 125 48 188 22 128 211 207 64 171 315 52 215 111 57 37 73 40 131 382 110 222 54 26 41 59 25
internal_value=-2.25381 -2.18025 -2.19508 -2.22951 -2.14387 -1.99997 -2.05789 -1.60507 -1.87848 -2.02024 -1.99068 -1.92698 -1.79814 -1.82493 -1.91283 -2.28289 -2.05568 -1.91248 -2.10586 -1.77566 -1.83929 -1.7657 -2.21243 -2.1633 -2.08736 -2.02241 -1.82143 -2.1685 -2.20878 -1.63957
internal_weight=1518.15 808.879 788.557 670.268 257.371 118.289 173.499 20.3218 74.2393 151.415 136.732 100.669 54.8572 56.1493 31.8336 412.897 44.5201 19.7345 19.3821 48.6314 26.1952 20.0869 115.47 70.5978 45.3423 32.421 40.0563 36.0624 31.2463 23.0236
internal_count=12924 6886 6713 5706 2191 1007 1477 173 632 1289 1164 857 467 478 271 3515 379 168 165 414 223 171 983 601 386 276 341 307 266 196
is_linear=0
shrinkage=1


Tree=5
num_leaves=31
num_cat=0
split_feature=4 1 3 7 1 7 1 12 0 11 10 4 10 2 2 1 4 4 12 2 3 10 11 10 5 8 0 7 12 8
split_gain=3335.14 574.437 350.076 158.839 157.741 173.036 145.976 126.27 113.571 87.3013 116.133 78.2609 53.7069 46.0741 44.5386 65.4769 38.3034 36.8372 35.1951 33.5245 26.829 42.202 58.8146 25.0218 20.0958 19.825 18.5409 17.6404 15.5991 16.5226
threshold=16.902081000000003 98.564367500000017 32.603467500000001 18.897876000000004 158.06747000000004 17.958065000000001 64.30989000000001 2.3308340500000004 -384.25923499999993 4.6093562500000003 -20.383552999999996 28.617040500000005 -1.4506943499999998 -9.8015149999999984 12.410861000000002 192.61716000000004 -15.838667499999998 -0.65073214999999995 -0.25417001999999994 29.746150500000002 16.186455000000006 -29.857191999999994 14.719444500000003 -23.931528999999994 23.071978000000005 -0.7701267249999999 -243.64903499999997 8.0898695000000007 -4.4292454999999995 3.3193005000000002
decision_type=2 2 2 2 2 2 2 2 2 2 2 2 2 2 2 2 2 2 2 2 2 2 2 2 2 2 2 2 2 2
left_child=1 3 6 7 5 12 -2 19 -7 10 -4 -12 13 17 15 18 -10 26 -8 20 -1 -22 -23 -9 -5 -18 27 -3 -19 -30
right_child=2 4 9 24 -6 8 14 23 16 -11 11 -13 -14 -15 -16 -17 25 28 -20 -21 21 22 -24 -25 -26 -27 -28 -29 29 -31
leaf_value=0.18677315171866865 0.20042652463588803 -0.014464805655948513 0.20412942606192438 0.21090565146448231 -0.094506979863147697 -0.085178349790925506 0.19326245941204578 0.12192988789516979 -0.10729272722238659 0.21361288923987698 -0.0701995741507664 0.1501671602615133 -0.092041518242162751 -0.060105724118974239 -0.091760122784428508 -0.082021337420296062 0.018887619839283262 0.21423670590122718 0.005091906789912351 -0.066066155073969401 0.21739517469790182 -0.053671051427549549 0.21467520892562098 -0.095079951144225697 0.030793062077865085 0.20033593675194303 -0.082747123704598913 0.17630069777085511 0.18099077196800986 -0.064052116183344429
leaf_weight=34.462451949715614 39.262141615152359 13.482872530817987 86.75101064145565 73.886766970157623 1615.3007413297892 26.07141424715519 23.319087982177734 5.7895362377166739 4.9675245583057395 568.75365094840527 36.3245929479599 28.967674762010574 212.48578472435474 93.153874918818474 51.66219799220562 29.837596043944359 6.737263858318328 14.084600359201433 17.324364989995956 11.191795900464056 15.064663797616957 29.204448744654655 11.338671207427977 64.58549827337265 6.7615398466587058 56.682473361492157 18.680811047554016 7.5684275329112998 5.3675143271684629 5.6461329311132431
leaf_count=124 139 54 306 257 6896 109 85 21 21 1985 150 106 901 387 213 123 26 51 66 45 54 116 41 272 25 205 76 29 20 21
internal_value=0.000189535 -0.0624513 0.16581 0.0800499 -0.0797335 -0.0284059 0.0326894 0.0256592 0.0924117 0.195619 0.128309 0.0275687 -0.0592108 -0.0150541 -0.0212286 0.0304706 0.160115 0.04968 0.113054 0.0971632 0.117446 0.0744803 0.0213772 -0.0772272 0.195805 0.18106 -0.0102308 0.0541198 0.144523 0.0553698
internal_weight=3214.72 2332.51 882.202 252.285 2080.23 464.929 161.405 171.637 94.4587 720.797 152.043 65.2923 370.47 157.984 122.143 70.481 68.3873 64.8304 40.6435 101.262 90.0702 55.6078 40.5431 70.375 80.6483 63.4197 39.7321 21.0513 25.0982 11.0136
internal_count=12924 9751 3173 955 8796 1900 626 673 361 2547 562 256 1539 638 487 274 252 251 151 380 335 211 157 293 282 231 159 83 92 41
is_linear=0
shrinkage=0.1


Tree=6
num_leaves=31
num_cat=0
split_feature=1 3 7 2 9 1 0 1 10 1 1 5 1 5 2 2 3 5 8 3 0 1 6 9 12 8 6 0 8 9
split_gain=1715.99 1004.72 224.633 192.434 267.038 177.944 154.439 151.892 137.097 86.9796 72.6539 71.1661 63.8006 59.1444 57.953 55.7384 60.7162 51.1299 48.0094 82.5804 39.3703 37.3068 33.9861 37.7791 30.8005 30.2113 28.3317 28.2925 28.2543 27.4703
threshold=147.21562000000003 5.9104924000000008 20.949901500000003 -90.385654999999986 -3.5435558499999997 191.93879500000006 -167.96497999999997 201.06125500000005 -5.4087376499999991 182.60224000000002 128.71262500000003 7.2106921500000007 185.06829000000002 8.522785500000003 34.854254000000005 -77.776664999999994 22.342320000000004 20.323230000000006 11.597157500000002 21.227880500000001 -189.55575499999995 213.77593000000002 4.975987850000001 -18.727382499999994 -0.37197340999999995 7.7006053500000009 1.9989196000000002 -270.19997999999993 1.5773449500000003 -0.91527205499999986
decision_type=2 2 2 2 2 2 2 2 2 2 2 2 2 2 2 2 2 2 2 2 2 2 2 2 2 2 2 2 2 2
left_child=10 8 3 5 9 -3 26 11 12 13 -1 25 -2 -5 17 16 20 27 19 -12 -11 -10 -8 -24 -21 -6 -7 -13 -14 -9
right_child=1 2 -4 4 7 6 22 29 21 15 18 14 28 -15 -16 -17 -18 -19 -20 24 -22 -23 23 -25 -26 -27 -28 -29 -30 -31
leaf_value=-0.10464522602526674 -0.075161307568617497 -0.089254261679819979 -0.09694306190135632 -0.032923698658988837 0.079424243664087957 0.085506766543242879 -0.04132136798315867 0.1379299621920492 -0.094333325223776715 0.15137451837111532 -0.064747507328743195 0.11484366629117444 0.18502301517878281 0.16800392574127254 0.20412391020452725 0.20293845260871987 0.18836593619779116 0.14289411108139938 -0.10199036434178699 -0.00082994027951737912 0.0037120802032630344 -0.022405588889725696 0.1878836015766541 0.0058972000416830164 0.15850236704878287 -0.079385331178889587 0.17604194936989412 0.026479072330824166 0.036442582973166958 -0.046502146165765222
leaf_weight=1011.039801210165 23.001419678330421 81.023332253098488 57.696294337511063 33.536057516932487 20.705798372626305 51.697689771652222 80.565433919429779 8.7687346637248975 384.09858170151711 31.294885545969009 85.560930594801903 56.919421598315239 31.31586617231369 26.013691425323486 61.6044941842556 384.28255343437195 90.313994854688644 133.07324877381325 80.824284702539444 19.944768607616425 42.683596104383469 88.776602402329445 16.39626470208168 37.487579584121704 30.974406033754349 28.421594142913818 104.30067828297615 99.702748566865921 21.644474506378174 102.20991143584251
leaf_count=4201 93 326 237 130 76 188 312 34 1579 110 344 208 109 91 216 1323 314 468 336 75 161 350 61 144 113 109 365 374 81 396
internal_value=0.000493775 0.0554617 0.0966626 0.104154 0.124848 0.0417871 0.0783425 0.0715908 -0.0607981 0.169636 -0.0933701 0.100282 0.0639021 0.0548495 0.116047 0.182096 0.133346 0.0973169 -0.0409112 -0.00473984 0.0661773 -0.0808298 -0.00020389 0.0612737 0.0960928 -0.0124516 0.146039 0.0585924 0.124299 -0.0319296
internal_weight=3325.88 2097.53 1548.7 1491 1119.53 371.471 290.448 511.406 548.837 608.125 1228.34 400.427 75.9618 59.5497 351.3 548.575 164.292 289.695 217.304 136.48 73.9785 472.875 134.449 53.8838 50.9192 49.1274 155.998 156.622 52.9603 110.979
internal_count=12924 7855 5643 5406 4010 1396 1070 1881 2212 2129 5069 1451 283 221 1266 1908 585 1050 868 532 271 1929 517 205 188 185 553 582 190 430
is_linear=0
shrinkage=0.1


Tree=7
num_leaves=31
num_cat=0
split_feature=11 1 7 2 1 2 3 0 7 5 4 8 4 3 11 9 6 1 3 8 0 2 6 1 1 4 1 12 4 1
split_gain=439.29 649.726 442.222 325.587 560.447 187.094 91.0644 82.0794 73.8739 74.5344 73.6996 82.5468 71.2131 67.0827 56.4175 49.9698 47.1964 43.6739 65.7806 40.1106 36.3405 46.411 79.6253 34.9374 30.0204 27.868 27.2109 25.9266 39.5162 24.0834
threshold=9.9181740000000023 156.16705000000005 19.945418500000006 -79.147651999999979 211.16801500000003 -12.584135999999999 33.953877500000011 -239.64396499999998 8.0898695000000007 4.6200450000000011 30.720312000000003 -0.46847405999999997 13.188485500000002 7.853380650000001 1.5954517500000003 -3.0893532499999998 -32.802870999999996 193.36302500000002 11.045892000000002 14.7476295 -243.64903499999997 -33.341959999999993 12.774646500000001 192.61716000000004 222.70522000000003 4.6945338000000012 121.711775 8.0858910000000019 35.102337500000012 96.63631500000001
decision_type=2 2 2 2 2 2 2 2 2 2 2 2 2 2 2 2 2 2 2 2 2 2 2 2 2 2 2 2 2 2
left_child=1 2 5 4 6 12 15 8 16 -10 11 -11 14 24 29 17 -7 -3 -19 -20 21 22 -5 -8 -6 -24 -16 -14 -29 -1
right_child=-2 3 -4 20 13 7 23 -9 9 10 -12 -13 27 -15 26 -17 -18 18 19 -21 -22 -23 25 -25 -26 -27 -28 28 -30 -31
leaf_value=0.25728148760435338 -0.080453643499933974 0.23019280921593033 -0.076356714612554888 -0.022581357875120268 0.15317374725813732 -0.06159483611102743 0.12832132330319765 -0.015309926157320318 -0.034926590872444707 0.0082731843161415412 -0.046126028131345212 0.21642585210538107 -0.080449522078875402 -0.080300519945420215 0.20687504217051556 -0.066073352376798664 0.24258496765803927 0.20786272090659841 -0.010380142591622796 0.24771954918064207 -0.076118258222138926 -0.054248211034426744 0.041445151170500599 -0.069115662127589753 -0.027538220444400421 0.27701570492287869 -0.060352153531550851 0.26005513532945229 -0.099963329734664486 0.11447537351660715
leaf_weight=14.495137259364126 533.22282625734806 109.0884465277195 114.92224709689617 79.273729160428047 18.98743212223053 5.2547702789306632 14.763547927141188 21.062783733010292 20.689771369099617 22.24537967145443 14.925352990627287 132.70920431613922 42.623674809932709 217.38020896911621 4.4800992906093624 8.1058572977781278 174.21166022121906 54.981839686632156 31.849717423319817 7.4249020218849173 441.90434758365154 301.59675630927086 7.8098810017108944 22.810043349862099 17.820360288023949 14.06730607151985 25.495032370090485 6.2651042342185956 5.9387219697237015 63.733761310577393
leaf_count=61 2900 457 612 408 85 27 70 105 99 103 76 569 220 1170 20 38 736 236 154 35 2362 1585 40 115 88 71 130 27 30 295
internal_value=0.000266732 0.0216072 0.102166 -0.0183807 0.045295 0.13919 0.151917 0.176706 0.187636 0.144276 0.166101 0.186543 0.0491928 -0.0591614 0.0962387 0.177408 0.233679 0.187114 0.137257 0.0384138 -0.0563163 -0.034589 0.0240278 0.00846197 0.0656827 0.19292 -0.0204122 -0.0436539 0.0848601 0.140936
internal_weight=2550.14 2016.92 669.053 1347.86 503.212 554.13 249.024 391.099 370.036 190.57 169.88 154.955 163.032 254.188 108.204 211.451 179.466 203.345 94.2565 39.2746 844.652 402.748 101.151 37.5736 36.8078 21.8772 29.9751 54.8275 12.2038 78.2289
internal_count=12924 10024 3110 6914 2448 2498 1105 1715 1610 847 748 672 783 1343 506 920 763 882 425 189 4466 2104 519 185 173 111 150 277 57 356
is_linear=0
shrinkage=0.1


Tree=8
num_leaves=31
num_cat=0
split_feature=3 10 3 9 9 5 11 11 3 5 9 6 4 3 11 10 4 1 9 5 8 2 1 5 0 2 8 5 5 9
split_gain=2364.63 655.973 251.294 217.157 134.843 301.614 109.534 83.5906 63.1623 80.593 45.0798 44.8159 44.5809 38.3692 109.959 38.9476 35.6908 19.4319 16.1534 32.5154 14.8504 24.9627 13.2991 12.7692 34.6652 14.813 11.3909 9.77372 9.60704 8.97911
threshold=-9.197967499999999 7.5571854500000013 20.769113500000003 -6.5914516999999995 10.848439000000001 12.571688500000002 1.4421296500000003 1.6702505000000001 -21.301646499999993 4.6200450000000011 11.578416500000001 10.608139500000002 -2.3416548999999995 8.725059250000001 3.2932706000000005 2.6402550000000002 7.7453890000000012 219.10340500000004 -2.7971839999999992 8.7519805000000019 11.597157500000002 17.795625000000005 212.26438500000003 7.2106921500000007 -359.63711499999994 -35.544614999999993 3.9719791500000006 -4.6193589999999984 6.7385905000000008 -2.0042105999999995
decision_type=2 2 2 2 2 2 2 2 2 2 2 2 2 2 2 2 2 2 2 2 2 2 2 2 2 2 2 2 2 2
left_child=3 4 6 7 13 16 10 -1 -5 12 -3 -11 29 14 20 27 17 28 -4 -20 -2 -22 26 25 -25 -8 -17 -16 -6 -10
right_child=1 2 18 8 5 -7 23 -9 9 11 -12 -13 -14 -15 15 22 -18 -19 19 -21 21 -23 -24 24 -26 -27 -28 -29 -30 -31
leaf_value=-0.052581983433678252 -0.077215107893329249 -0.065899910397328718 -0.089938074929135095 0.3548455015729195 0.37938246080066912 -0.08001967783198527 0.20151188180233448 0.35556995854625245 0.22565108316359536 -0.058732864462893934 0.28583851798947552 0.33105392297633918 0.024123606134016033 -0.086248806953280577 0.16140482790146773 0.18451246486165399 0.01762033727640033 0.11909692729215456 0.24536708496657766 -0.046982112024717547 -0.040714261355186077 0.27224511294812442 0.085424593146725805 0.012733256142910838 0.36273697173422942 0.36030273394902296 0.39209980710034553 -0.036261211428502658 0.22158213125938367 0.35955563440749205
leaf_weight=23.627543158829216 153.89853029698133 12.067851185798647 22.94737696647644 155.60538060963154 21.425779938697822 70.255425155162811 6.6550555825233451 6.3707686811685553 5.8984388113021842 11.740777902305124 5.2197077795863143 3.9394212961196891 5.0691543295979491 1049.9274419099092 3.4798958599567404 4.2745689600706083 4.5179240703582755 4.194453999400138 5.2866835147142437 13.568610198795794 11.8074569478631 3.2502610832452765 3.3360697329044333 4.6019027978181839 7.348290026187895 50.107742428779602 6.926873967051506 8.8968218415975588 4.7053931877017012 33.162936098873615
leaf_count=184 1229 93 187 725 104 571 35 33 36 83 30 20 34 8603 20 26 32 27 32 104 88 19 22 28 38 233 37 63 27 161
internal_value=-0.00129609 -0.049006 0.167536 0.286171 -0.0694922 0.0392823 0.265299 0.0340976 0.321274 0.233934 0.040302 0.0391954 0.303128 -0.0786687 -0.0380372 0.14969 0.279832 0.318897 -0.0335899 0.0349873 -0.0679416 0.0268391 0.260686 0.321906 0.227954 0.341686 0.312883 0.0193155 0.350968 0.339335
internal_weight=1724.11 1478.7 127.803 245.414 1350.9 105.099 86.0005 29.9983 215.416 59.8107 17.2876 15.6802 44.1305 1245.8 195.87 26.9142 34.8436 30.3256 41.8027 18.8553 168.956 15.0577 14.5375 68.713 11.9502 56.7628 11.2014 12.3767 26.1312 39.0614
internal_count=12924 11648 780 1276 10868 761 457 217 1059 334 123 103 231 10107 1504 168 190 158 323 136 1336 107 85 334 66 268 63 83 131 197
is_linear=0
shrinkage=0.1


Tree=9
num_leaves=31
num_cat=0
split_feature=1 7 0 9 0 5 1 0 5 8 12 7 10 2 6 1 3 3 2 0 0 1 4 1 4 2 8 2 10 10
split_gain=764.318 287.581 312.058 200.572 207.701 157.752 131.061 89.1417 70.4547 79.0824 62.0351 60.0987 54.6891 60.6877 47.2381 53.7469 46.3424 39.6144 34.9972 33.7592 30.2953 34.4912 34.1514 28.5718 28.5409 26.8789 26.1613 23.8836 21.3786 20.6865
threshold=163.68624000000003 25.652677500000003 -161.15048999999996 -0.75380146499999989 -369.9987999999999 -8.8013264999999983 209.91491500000004 -182.88471999999999 22.612589000000003 16.472752500000002 0.8372657750000001 -1.2942838999999997 -2.2317413499999996 -9.4095759999999995 4.8800265000000005 207.68379000000002 25.790020000000002 33.953877500000011 -70.767324999999985 -320.97686999999996 -251.11150499999997 183.27044500000002 16.902081000000003 218.05752000000004 -22.562071999999997 -72.607854999999986 4.1494908500000003 -93.999354999999994 -1.5208093999999999 -1.9624949499999997
decision_type=2 2 2 2 2 2 2 2 2 2 2 2 2 2 2 2 2 2 2 2 2 2 2 2 2 2 2 2 2 2
left_child=-1 2 3 7 -5 -6 -4 -2 9 11 -3 19 26 20 15 -9 18 25 24 23 21 -14 -23 -7 28 29 -13 -19 -17 -8
right_child=1 10 6 4 5 8 17 14 -10 -11 -12 12 13 -15 -16 16 -18 27 -20 -21 -22 22 -24 -25 -26 -27 -28 -29 -30 -31
leaf_value=-0.082423926701436556 -0.049115207197122111 0.37769615218028596 0.042596550379769837 -0.073990603993103699 -0.075977386948675563 -0.014156501918442817 0.2268582497390868 -0.019693542292739438 0.020082246898855308 -0.049557732051116882 -0.088452557165936294 0.18994463905019968 0.0051299100072948484 0.12983357393944342 -0.032861391936799933 -0.046861692001553594 0.00052013018051642673 0.20368121131718409 -0.016245278611973415 -0.0079824527626911942 0.37063646387859461 0.33504217223013505 -0.026547481108624822 0.39903855581204201 0.3157169154198502 0.10751717443534653 -0.018352260665987205 -0.07199821683251996 0.28368672004134005 0.34456244097745631
leaf_weight=649.84439994394779 306.30792415142059 32.980757020413876 40.743723258376122 61.373218171298504 30.625237427651882 2.6162453517317799 22.010425895452499 24.502728253602982 27.171187616884708 12.273284271359442 3.1254263147711745 16.630812928080562 5.1342337429523495 21.610805727541447 40.338813342154026 4.5142416954040527 13.192099742591379 8.4094834476709348 5.3874782472848919 16.767294891178608 45.943647891283035 21.207128405570987 2.9789267778396598 4.6442393288016319 23.251045048236847 7.5187820717692366 9.459188945591448 5.0177349820733061 3.4534919187426558 46.426528096199036
leaf_count=6038 2735 161 332 560 273 21 134 215 219 100 29 117 37 157 340 35 106 56 43 129 287 141 20 27 161 55 68 37 24 267
internal_value=-0.000460021 0.0610728 0.0490474 0.0225909 0.0884369 0.134362 0.191241 -0.0209628 0.168914 0.194305 0.337345 0.214667 0.242932 0.277541 0.0542579 0.101556 0.161215 0.258999 0.219126 0.0700169 0.319953 0.240534 0.290506 0.250148 0.259745 0.286989 0.114425 0.10066 0.0964094 0.306707
internal_weight=1515.46 865.616 829.51 699.383 278.435 217.062 130.127 420.948 186.437 159.266 36.1062 146.993 122.965 96.8747 114.64 74.3011 49.7984 89.383 36.6063 24.0278 75.2639 29.3203 24.1861 7.26048 31.2188 75.9557 26.09 13.4272 7.96773 68.437
internal_count=12924 6886 6696 5815 2156 1596 881 3659 1323 1104 190 1004 827 642 924 584 369 549 263 177 485 198 161 48 220 456 185 93 59 401
is_linear=0
shrinkage=0.1


Tree=10
num_leaves=31
num_cat=0
split_feature=1 7 2 4 6 2 1 7 4 4 12 2 10 1 0 5 8 2 7 7 1 10 12 9 5 0 0 8 8 10
split_gain=2602.71 472.51 255.096 230.785 138.913 96.5219 81.3558 89.5653 80.9715 79.4335 58.2366 54.6612 53.6993 37.4509 36.6071 34.0344 32.9684 28.7801 26.6607 23.9417 22.523 25.0663 21.3659 21.2925 44.2262 18.9683 18.3352 31.3917 15.0438 33.1615
threshold=131.01441000000003 18.240288500000002 -21.239005999999996 20.911956000000004 -16.175014499999996 -6.2743176499999995 158.06747000000004 28.283524500000002 12.203316000000003 -4.0696898999999993 -3.4780706499999998 29.746150500000002 -1.6709748499999997 206.43318500000001 -333.71398499999992 39.029255000000013 -12.499925499999998 23.068496000000003 16.841383000000004 9.1971945000000002 92.575389500000014 -2.3064778999999995 2.2275502 5.5556515000000006 33.806389000000003 -432.15172499999994 -296.40485999999993 3.7826126000000007 13.717413000000002 -6.3805706999999989
decision_type=2 2 2 2 2 2 2 2 2 2 2 2 2 2 2 2 2 2 2 2 2 2 2 2 2 2 2 2 2 2
left_child=1 2 8 6 14 13 7 12 -1 -3 11 20 17 -5 19 16 -12 18 26 -4 25 -22 -21 -16 -25 -6 27 -2 -8 -30
right_child=3 9 4 5 10 -7 28 -9 -10 -11 15 -13 -14 -15 23 -17 -18 -19 -20 22 21 -23 -24 24 -26 -27 -28 -29 29 -31
leaf_value=-0.022924727527759897 0.1508166611081152 -0.029202261644572916 -0.058573993037881605 0.18137780132960982 0.19990805678225662 -0.057580065144958718 -0.094308473767135248 0.14691436119007112 0.17977328874615894 0.17933210591232981 0.1626264353059115 -0.097173693241202674 -0.083944670313147812 -0.034888181553458984 0.15133714152428374 0.16450612104005205 -0.085474244985949438 -0.086989500083698532 0.18213682242113138 0.13991121444308335 0.1012533330968773 -0.096910833062338969 -0.037607079283581209 -0.098001718132810167 0.17957761628718769 0.042758426511068343 -0.036857438501855216 -0.06297720195581151 0.06455142877696074 -0.077531818973422983
leaf_weight=22.814249306917191 18.63514801859856 18.816395938396454 22.89572636783123 54.361309543251991 19.965852364897728 34.781260535120964 1276.5234053581953 25.521612405776978 144.72543448209763 624.70354090631008 5.5315116196870795 23.324862644076347 165.3046158850193 9.3904985636472684 67.740162044763565 6.0062704086303702 168.82124850153923 23.260997384786606 11.274168044328688 19.276216566562656 14.571614459156992 11.35920989513397 10.458782479166983 11.553196653723719 11.407369762659071 12.482759192585943 32.496236890554428 10.876314774155615 17.66585810482502 234.16881661117077
leaf_count=94 71 76 94 184 68 147 5871 89 475 2049 20 102 747 39 234 20 729 105 39 67 55 50 42 45 38 45 133 46 78 1072
internal_value=4.92741e-05 0.114428 0.0483756 -0.0726347 0.00547934 0.0764171 -0.0807232 -0.0319073 0.152171 0.173235 -0.0378119 0.0322273 -0.0493366 0.149522 0.0846319 -0.0695404 -0.077603 0.00992079 0.0406819 0.0182886 0.083928 0.0144459 0.0774722 0.123129 0.0399065 0.139454 0.0149627 0.0720239 -0.0899018 -0.0675649
internal_weight=3130.71 1216.45 572.934 1914.26 405.395 98.5331 1815.73 287.369 167.54 643.52 262.063 81.7043 261.847 63.7518 143.331 180.359 174.353 96.5429 73.2819 52.6307 58.3794 25.9308 29.735 90.7007 22.9606 32.4486 62.0077 29.5115 1528.36 251.835
internal_count=12924 4303 2178 8621 1609 370 8251 1230 569 2125 1089 320 1141 223 520 769 749 394 289 203 218 105 109 317 83 113 250 117 7021 1150
is_linear=0
shrinkage=0.1


Tree=11
num_leaves=31
num_cat=0
split_feature=1 3 7 0 10 11 1 9 2 1 1 0 1 5 2 1 8 3 5 9 1 9 0 3 2 10 2 11 4 9
split_gain=1388.79 772.984 172.38 139.558 135.254 124.856 88.6787 159.857 82.2545 68.0669 62.4604 55.0557 52.68 50.7772 47.1539 45.3117 42.8954 65.2931 42.8716 38.7489 49.3071 31.2822 64.1171 27.0563 26.8323 25.8256 25.4401 24.2712 23.3143 21.086
threshold=147.21562000000003 7.543434200000001 21.417234500000003 -152.26196999999996 -5.9943443499999995 7.3085556500000015 210.49782500000003 -1.3576729499999998 -89.785719999999984 128.71262500000003 191.93879500000006 -172.03964999999997 185.06829000000002 4.7675934000000009 -81.178547499999993 211.71940000000004 9.7835125000000023 21.227880500000001 -4.0396742999999988 5.5556515000000006 171.85293500000003 -3.8594100499999997 -197.80515499999998 28.759647500000003 -91.011301999999986 -15.102316499999999 -2.0316589999999994 -2.3332245499999993 22.051448000000004 3.3788880000000003
decision_type=2 2 2 2 2 2 2 2 2 2 2 2 2 2 2 2 2 2 2 2 2 2 2 2 2 2 2 2 2 2
left_child=9 4 3 5 12 6 8 11 10 -1 -3 -8 -2 -7 -5 -6 17 -11 23 25 -21 22 -17 -13 -14 -10 -22 -12 -23 -19
right_child=1 2 -4 14 15 13 7 -9 19 16 27 18 24 -15 -16 21 -18 29 -20 20 26 28 -24 -25 -26 -27 -28 -29 -30 -31
leaf_value=-0.10006063841749852 -0.067065577770696744 -0.074513890119291881 -0.093668735941632345 -0.034689548545178202 -0.086072167759025375 -0.087530629827273901 0.16554656439627849 -0.050667593886277208 -0.07384571194023512 -0.056649779531981109 0.14490592534014821 0.0026587792089214544 -0.049511849672521133 0.05900218491733035 0.096756568823596151 0.14986649184893289 -0.090405207707002833 0.011735181360116852 0.16103647921894532 0.12604563267623056 -0.006350581452854151 -0.094241139122238415 -0.05535570313314675 0.16174326048567539 0.15240299659322301 0.12291896658880552 0.1188444600213326 0.0082319219546015208 0.12408390925536393 0.14853239385715211
leaf_weight=928.31078712642193 19.388531967997551 52.404428869485855 51.936404258012772 108.39475308358669 382.80497626960278 43.974624261260033 468.89112308621407 42.380500316619873 6.8035974502563468 74.518553584814072 27.401444047689438 52.012174561619759 7.6364072859287253 51.161297917366028 36.474583953619003 26.906516879796982 87.085818156599998 18.761911302804947 46.364020377397537 70.37500773370266 84.320575132966042 46.671163514256477 35.062422767281532 13.456848680973051 47.640831679105759 340.85554400086403 20.100072175264359 24.71062533557415 5.4638239294290534 28.209553867578506
leaf_count=4201 81 223 230 423 1670 175 1542 167 26 314 94 196 29 185 127 94 386 71 156 239 309 199 139 47 161 1166 69 87 21 97
internal_value=0.000661991 0.0486013 0.0854199 0.091662 -0.0507292 0.101705 0.11011 0.136826 0.0835575 -0.0884623 0.00257557 0.150509 0.0747626 -0.0087296 -0.00159461 -0.0695857 -0.0368416 0.0015536 0.087462 0.0997578 0.0613503 -0.0142755 0.0337505 0.0353578 0.124509 0.119068 0.0177484 0.0800975 -0.0713604 0.0938912
internal_weight=3250.48 2113.59 1542.02 1490.08 571.575 1345.21 1250.08 623.105 626.971 1136.89 104.516 580.724 74.6658 95.1359 144.869 496.909 208.576 121.49 111.833 522.455 174.796 114.104 61.9689 65.469 55.2772 347.659 104.421 52.1121 52.135 46.9715
internal_count=12924 7855 5461 5231 2394 4681 4321 2108 2213 5069 404 1941 271 360 550 2123 868 482 399 1809 617 453 233 243 190 1192 378 181 220 168
is_linear=0
shrinkage=0.1


Tree=12
num_leaves=31
num_cat=0
split_feature=7 1 11 1 11 1 2 8 5 1 3 9 3 2 10 5 6 1 2 3 4 0 6 4 11 5 0 3 1 2
split_gain=374.845 463.543 476.134 128.627 187.852 118.304 316.687 143.113 72.8292 68.8636 73.5644 63.363 61.7456 54.4729 45.157 41.1196 40.1546 47.5702 65.2961 56.6312 44.1446 39.139 35.7046 37.4457 34.0048 32.8017 42.2472 32.5379 54.8138 26.3721
threshold=19.945418500000006 203.84209000000001 1.7658704500000002 112.79699000000001 10.703371500000001 146.46889000000002 -68.248607999999976 21.671782000000004 27.086993500000002 177.99439000000004 15.430328250000002 -14.617917499999999 30.508205000000004 -0.8458794249999998 -29.857191999999994 4.4202156500000012 15.858655000000002 216.93037000000001 -88.336184999999986 9.0190515000000016 8.2810297500000019 -196.19488999999996 -22.519068999999998 -4.910687349999999 -0.79185984999999992 14.738596500000002 -348.48148999999995 16.452146000000003 81.796030000000016 -9.8015149999999984
decision_type=2 2 2 2 2 2 2 2 2 2 2 2 2 2 2 2 2 2 2 2 2 2 2 2 2 2 2 2 2 2
left_child=1 2 5 4 8 7 12 14 15 10 13 -5 -7 -8 -1 -4 17 18 19 -3 -18 27 -10 -24 -15 -6 -27 28 -16 -30
right_child=-2 16 3 11 25 6 9 -9 22 -11 -12 -13 -14 24 21 -17 20 -19 -20 -21 -22 -23 23 -25 -26 26 -28 -29 29 -31
leaf_value=-0.086221748928039743 -0.086037585709730455 0.16110565926545733 -0.053408768875063531 0.10948874901688599 -0.091024457355721719 0.17552764644235136 0.012491762920346766 -0.039423919112359686 -0.091760405581847962 -0.073673645871821097 -0.049020714252729816 -0.059619041372607144 0.039091713093463688 0.21780494721710786 -0.052171035124980919 0.21452708076626337 -0.041212116956257296 -0.078516834056275173 -0.063760777139831137 -0.014220392002954763 0.16999121509968063 0.0043004900743031198 -0.1030102345014879 0.24378552972208878 -0.012083722042662299 0.30603692128551718 -0.022591191588234735 0.20590377690208125 0.068400065837321888 0.18855365614722067
leaf_weight=7.0030756294727317 417.26228804886341 29.738418877124786 6.2467737048864356 23.508762642741203 68.425090059638023 187.80371007323265 40.990844681859016 38.489173427224159 16.33392317593098 104.08812811970711 62.607235342264175 385.29450413584709 40.285542070865631 34.137245863676071 13.431077837944029 68.942681536078453 24.732084050774574 405.24769116938114 126.54641765356064 48.418810591101646 16.497918337583542 13.531523287296293 4.7088565230369559 9.1901260912418348 7.9288062602281562 4.9233143031597164 19.042255476117134 173.78492134809494 23.402021512389183 83.252497926354408
leaf_count=35 2450 114 32 104 405 742 203 197 89 587 336 2111 187 144 62 273 136 2328 701 256 79 60 22 36 41 25 110 647 102 310
internal_value=0.000492946 0.0177806 0.0494904 -0.0178627 0.0483343 0.0986727 0.0662426 0.142585 0.139562 -0.0115559 0.032832 -0.0498943 0.15143 0.0945316 0.164867 0.192267 -0.0522124 -0.0586686 -0.0193754 0.0524903 0.0432995 0.170587 0.00848585 0.126294 0.174474 -0.0557614 0.0449198 0.178244 0.138214 0.16219
internal_weight=2505.8 2088.53 1437.35 606.616 197.813 830.736 477.842 352.894 105.422 249.752 145.664 408.803 228.089 83.0569 314.405 75.1895 651.181 609.951 204.704 78.1572 41.23 307.402 30.2329 13.899 42.0661 92.3907 23.9656 293.871 120.086 106.655
internal_count=12924 10474 6860 3207 992 3653 2240 1413 452 1311 724 2215 929 388 1216 305 3614 3399 1071 370 215 1181 147 58 185 540 135 1121 474 412
is_linear=0
shrinkage=0.1


Tree=13
num_leaves=31
num_cat=0
split_feature=3 10 3 9 9 5 11 11 9 3 5 6 3 11 1 5 2 10 5 0 12 7 5 5 4 9 12 6 5 9
split_gain=1645.25 529.635 216.595 118.58 94.3622 178.99 89.5351 54.7532 44.6759 30.0629 45.0536 29.5649 27.2214 66.4478 26.0413 20.1165 20.3236 17.2999 15.7382 19.1381 14.4277 11.0766 24.6969 9.89861 9.41333 14.3881 8.93571 9.19838 8.60107 8.22392
threshold=-9.197967499999999 6.2719175500000004 20.769113500000003 -6.5914516999999995 10.848439000000001 12.571688500000002 1.5276208500000001 1.6702505000000001 11.578416500000001 -21.301646499999993 4.6200450000000011 10.608139500000002 8.725059250000001 3.2932706000000005 227.20965500000003 0.15864950500000002 -24.730194999999998 2.6402550000000002 11.850256000000002 -359.63711499999994 10.585118500000002 12.793121500000002 11.850256000000002 -3.8395392499999996 -12.254208999999998 3.0327510500000003 -6.7433611499999992 15.488975000000002 -4.9454572999999984 -2.5191411999999995
decision_type=2 2 2 2 2 2 2 2 2 2 2 2 2 2 2 2 2 2 2 2 2 2 2 2 2 2 2 2 2 2
left_child=3 4 6 7 12 15 8 -1 -3 -5 14 -12 13 21 24 -6 -17 28 26 -20 29 -2 -23 -10 -11 -26 -8 -28 -15 -4
right_child=1 2 20 9 5 -7 18 -9 23 10 11 -13 -14 17 -16 16 -18 -19 19 -21 -22 22 -24 -25 25 -27 27 -29 -30 -31
leaf_value=-0.050645481935094563 -0.075857434606626251 -0.057500522680364402 -0.088963173406638701 0.25657226280277884 0.2631240467980801 -0.077736035112153129 0.12149519078641054 0.25394887283520173 0.29252000756053037 0.26771331652339647 -0.056471831733457427 0.23872887869314821 -0.085716684483107611 0.1452540544757864 -0.0068141862464142326 -0.070018236029300837 0.19683595966508943 0.17678566748689828 -0.044405528798885541 0.22958012524044805 0.19666246744712301 0.25033307418083228 -0.075459310509853009 0.084075831751964411 0.0060631435100209794 0.25194937370535869 0.2699893732389364 0.14076832856070898 -0.036685055613228296 -0.011975065446369166
leaf_weight=22.739896677434448 144.64858407527208 18.516464546322826 31.229672409594059 191.54295441508293 22.138866737484932 62.038928247988224 4.9543842896819106 7.9699344187974921 5.7043792456388474 38.620279103517532 11.200195796787741 4.8669140934944144 935.92592720687389 3.6616675406694403 4.4767648801207534 4.3507463932037345 8.2959697395563108 14.315324589610098 4.1751958131790161 6.547323599457739 2.3790399357676497 3.4386859983205778 7.1960430070757866 3.7931026741862279 3.8147377222776395 6.3263964802026749 71.43473993986845 5.9689394906163207 8.9479346573352831 24.967853784561157
leaf_count=184 1221 153 278 725 90 548 27 33 23 154 83 20 8403 19 29 31 40 73 30 31 15 21 62 21 22 26 281 25 64 192
internal_value=-0.00176855 -0.0469329 0.113318 0.214269 -0.0706312 0.0240737 0.189681 0.028404 0.0329424 0.236152 0.179713 0.0329479 -0.0788322 -0.0434695 0.224007 0.205648 0.105032 0.101555 0.236854 0.122894 -0.0445471 -0.0686156 0.029884 0.209272 0.245198 0.159456 0.251691 0.260025 0.0161477 -0.0547583
internal_weight=1686.19 1394.63 179.671 291.558 1214.96 96.8245 121.095 30.7098 28.0139 260.848 69.3053 16.0671 1118.13 182.208 53.2382 34.7856 12.6467 26.9249 93.0806 10.7225 58.5766 155.283 10.6347 9.49748 48.7614 10.1411 82.3581 77.4037 12.6096 56.1975
internal_count=12924 11648 1076 1276 10572 709 591 217 197 1059 334 103 9863 1460 231 161 71 156 394 61 485 1304 83 44 202 48 333 306 83 470
is_linear=0
shrinkage=0.1


Tree=14
num_leaves=31
num_cat=0
split_feature=1 7 0 2 0 10 1 0 9 1 3 12 4 5 1 6 5 3 9 10 7 2 8 1 3 11 9 7 4 6
split_gain=640.021 171.737 207.175 168.584 200.032 72.5506 72.2134 64.2558 52.2232 57.0097 38.8681 34.2615 36.165 33.3912 46.4746 29.4297 28.5139 28.4352 23.3535 29.0567 25.5732 22.171 21.0388 20.7725 27.7653 20.2556 33.1976 22.8762 22.324 19.8699
threshold=163.68624000000003 25.229838500000003 -165.07690499999998 -42.440434999999987 -374.6627049999999 7.5571854500000013 209.91491500000004 -189.55575499999995 -6.7511659999999987 182.00848000000005 0.43858695000000009 8.3749700000000029 9.547328000000002 -3.8395392499999996 209.33607500000002 9.5924907500000014 24.314212000000001 20.564070500000003 -14.440734999999998 -1.0211278999999998 -14.494373499999998 -79.147651999999979 7.4643141500000008 228.74612500000003 9.6514700000000015 3.3847080500000004 7.1721625000000007 13.871321000000002 1.3871965500000003 -2.5184266999999996
decision_type=2 2 2 2 2 2 2 2 2 2 2 2 2 2 2 2 2 2 2 2 2 2 2 2 2 2 2 2 2 2
left_child=-1 2 3 7 -5 8 -4 -2 -6 25 -3 12 16 14 -9 21 29 18 19 -16 -20 23 -21 24 -8 28 -27 -28 -10 -11
right_child=1 10 6 4 5 -7 15 13 9 11 -12 -13 -14 -15 17 -17 -18 -19 20 22 -22 -23 -24 -25 -26 26 27 -29 -30 -31
leaf_value=-0.080990448150917591 -0.055987992975174677 -0.088978738338662558 0.037603158639350119 -0.072409099958178749 -0.078635086016946978 -0.05968680541478244 -0.052150972123889396 -0.031847000717262167 -0.046701153730792894 0.034188784798400144 0.26888477004099054 -0.058795594265284384 0.10170873872895676 -0.038202489594642085 -0.021331325839049842 0.019961962170355306 -9.6426743855360163e-05 0.028628078137848248 0.313497890713201 0.39372867388577504 0.017368591474083265 0.077500179808499853 0.065029339401970102 0.26554558248809906 0.19571110088354637 -0.004900755976755284 0.15623016888218583 0.44624074626401439 0.12946459741050242 0.24397302816935806
leaf_weight=593.42188420891762 247.57208374142647 3.2723161429166785 47.632836058735847 71.04232806712389 10.6519613340497 20.573170490562916 4.9791498556733123 31.596085883677006 21.603142268955708 4.7442687898874274 41.849565953016281 5.660293571650981 33.363729439675808 47.566259063780308 9.9210865274071711 10.156641386449335 5.5027984753251067 21.639195635914803 14.444903977215292 4.0731038823723784 3.6539052724838248 13.466246388852595 3.7309365049004555 43.777574628591537 48.947715885937214 10.133365303277971 10.313548438251017 3.6941550225019446 10.784183852374552 93.398746661841869
leaf_count=6038 2349 32 375 699 103 189 35 288 157 34 166 39 209 437 75 60 43 167 93 23 27 93 23 192 252 71 65 23 76 491
internal_value=-0.000374489 0.0527953 0.0427566 0.0183157 0.0742928 0.119523 0.141941 -0.0256076 0.137092 0.148628 0.242932 0.182302 0.192263 0.0294432 0.0655726 0.182904 0.221412 0.119139 0.173811 0.0922243 0.253713 0.197791 0.236585 0.21437 0.172826 0.0636386 0.132973 0.232713 0.0119577 0.233832
internal_weight=1493.17 899.745 854.623 685.663 301.466 230.423 168.96 384.198 209.85 199.198 45.1219 142.67 137.01 136.625 89.0592 121.327 103.646 57.4631 35.8239 17.7251 18.0988 111.171 7.80404 97.7044 53.9269 56.5284 24.1411 14.0077 32.3873 98.143
internal_count=12924 6886 6688 5681 2199 1500 1007 3482 1311 1208 198 816 777 1133 696 632 568 408 241 121 120 572 46 479 287 392 159 88 233 525
is_linear=0
shrinkage=0.1


Tree=15
num_leaves=31
num_cat=0
split_feature=1 7 4 2 11 10 2 1 7 4 4 12 5 10 1 2 6 12 7 4 2 0 2 6 3 6 8 10 12 4
split_gain=2074.19 340.714 196.256 193.222 116.748 101.244 74.9142 74.1298 71.832 59.1671 57.817 72.544 44.2413 36.0452 28.1102 26.7027 26.5276 21.6172 31.1949 17.7504 17.1952 16.3902 26.8025 21.5732 15.9333 15.5095 14.9161 29.1785 16.5531 14.725
threshold=131.01441000000003 18.240288500000002 20.911956000000004 10.825532500000003 10.703371500000001 -22.651352999999997 -6.2743176499999995 158.06747000000004 19.609856500000003 -4.0696898999999993 27.680167000000004 -5.9061659999999989 9.829971500000001 -1.1712617999999997 205.87970000000004 31.076873500000001 -29.394328999999995 2.8654565000000001 2.3147451500000007 -2.9627257999999994 37.478793000000003 -313.76554999999991 -5.3486349999999989 -2.7587234499999993 24.974211000000004 -5.4205584999999994 13.717413000000002 -6.3805706999999989 -2.1484674999999993 -15.588971499999998
decision_type=2 2 2 2 2 2 2 2 2 2 2 2 2 2 2 2 2 2 2 2 2 2 2 2 2 2 2 2 2 2
left_child=1 3 7 4 5 -1 14 8 13 -3 11 19 -10 20 -4 17 -13 18 -5 25 21 22 -2 -24 -20 -7 -9 28 -28 -18
right_child=2 9 6 15 -6 10 -8 26 12 -11 -12 16 -14 -15 -16 -17 29 -19 24 -21 -22 -23 23 -25 -26 -27 27 -29 -30 -31
leaf_value=0.14108972228797598 0.15204298784185721 -0.027420261607254498 0.15787701660677869 -0.10114947991392223 0.15126525869091098 0.10350745165451179 -0.053691108827904357 -0.090632639734599632 -0.094068457401422306 0.15432884078646772 0.11909941116064225 0.10904403419012097 0.1348082402262592 -0.086254178557401737 -0.026605319942922062 -0.094886946793719409 0.017901855462652157 -0.07210564012290295 0.13640712511136141 0.17920281244941783 -0.10070859997664434 -0.028441231719350219 0.16237973045635457 -0.082974029956474224 0.0100054870615498 -0.06581066644974562 -0.0073417048121509204 -0.073229624309085861 0.19694199403421933 -0.093285964405294963
leaf_weight=71.02436451613903 17.473889395594597 18.42894434928894 55.664644509553909 13.994359925389288 147.35549619793892 14.213048353791235 33.34493325650692 1178.0691664814949 10.965248271822928 638.11648754775524 33.727128759026527 8.0845194756984693 36.752181932330132 133.23315718770027 9.6986049264669401 71.09844908118248 13.681253522634504 36.809305459260941 19.685262724757195 14.910177722573279 15.847930103540419 42.877491399645805 4.8206157982349422 13.966437920928 20.211363971233368 8.7345727980136889 12.24116772413254 218.85672441124916 5.8679513186216345 92.041684970259666
leaf_count=236 62 76 182 61 478 51 147 5871 52 2049 114 29 124 650 41 342 56 165 73 49 78 179 21 64 78 36 54 1072 24 410
internal_value=-0.000204042 0.100221 -0.0687813 0.0433322 0.0803325 0.0395694 0.0682801 -0.076782 -0.029368 0.149227 0.000676654 -0.0256581 0.0822134 -0.0526981 0.130504 -0.0490026 -0.0655467 -0.0130346 0.0273128 0.0942547 -0.00563039 0.0134096 0.0628969 -0.0200181 0.0723729 0.0390598 -0.0860279 -0.0631358 0.0588529 -0.0788975
internal_weight=3011.8 1222.12 1789.68 565.571 403.772 256.417 98.7082 1690.97 275.937 656.545 185.392 151.665 47.7174 228.22 65.3632 161.799 113.807 90.7003 53.891 37.8578 94.9864 79.1384 36.2609 18.7871 39.8966 22.9476 1415.04 236.966 18.1091 105.723
internal_count=12924 4303 8621 2178 1459 981 370 8251 1230 2125 745 631 176 1054 223 719 495 377 212 136 404 326 147 85 151 87 7021 1150 78 466
is_linear=0
shrinkage=0.1


Tree=16
num_leaves=31
num_cat=0
split_feature=1 3 7 8 10 6 9 1 9 4 0 2 9 1 1 8 3 4 7 5 1 1 12 3 3 0 6 9 0 4
split_gain=1129.42 603.592 134.405 113.92 97.289 79.6602 76.9589 63.7215 62.881 81.3138 51.1055 48.4599 41.5756 45.5806 38.9384 38.3964 56.0815 37.2731 36.0872 34.6019 33.4505 33.1831 29.1989 28.9866 26.6008 22.5223 22.1198 22.0141 38.5749 22.8668
threshold=147.21562000000003 6.2007492000000006 20.949901500000003 11.802054500000002 -5.4087376499999991 2.1124543000000005 -0.29847767999999991 128.71262500000003 -15.472789999999998 -13.626527999999999 -152.26196999999996 -99.06223199999998 7.0460133500000008 170.74608000000003 185.06829000000002 11.597157500000002 17.395151000000002 22.865479500000003 -16.724393499999994 19.538585500000003 196.22645500000002 211.71940000000004 -0.37197340999999995 28.204665000000002 16.186455000000006 -162.37531999999996 6.7183178000000003 -0.59094414999999989 -197.80515499999998 23.772322000000003
decision_type=2 2 2 2 2 2 2 2 2 2 2 2 2 2 2 2 2 2 2 2 2 2 2 2 2 2 2 2 2 2
left_child=7 4 3 8 14 20 10 -1 11 23 17 18 24 -14 -2 16 -9 -7 -3 -8 -5 -6 -18 -10 -11 -22 -12 28 -23 -29
right_child=1 2 -4 5 21 6 19 15 9 12 26 -13 13 -15 -16 -17 22 -19 -20 -21 25 27 -24 -25 -26 -27 -28 29 -30 -31
leaf_value=-0.096165683906664468 -0.067296082709992752 0.11136863437967626 -0.088682508758966938 -0.099161644559513387 -0.08634786128371319 0.13017178911399008 -0.063910210229775014 -0.064243997626504942 -0.0072779467103782844 0.06624798353013174 -0.063041312422748561 0.14277413914785428 0.11761276406575745 -0.00083343721415581398 0.091508010421296249 -0.0938361575524463 -0.018175399505705781 -0.10903027770872227 -0.020168965808215554 0.12428047379104834 0.071339473666754069 0.1152922857447535 0.12168777850653101 0.10010528133649127 0.12091709074499697 -0.06434371868960527 0.087434862130030488 -0.098305711743975871 -0.05454296726977529 0.13518265776031957
leaf_weight=846.36711947619915 21.002669498324394 52.043638646602631 49.735373571515083 53.972147941589355 328.95816691219807 141.91343812644482 56.97070737183094 68.291093334555626 130.30238445103168 118.69247832894325 25.874104022979736 323.81143155694008 52.813115477561951 84.424780860543251 58.299595519900322 68.824469909071922 24.569953709840775 6.8276854157447806 34.806014597415924 11.792562723159788 29.074713990092278 24.553603962063789 38.03059346973896 31.146357655525208 355.83599787950516 21.120707899332047 15.694408044219015 38.612820014357567 29.3713738322258 4.7056030929088584
leaf_count=4201 93 184 236 226 1556 473 225 303 475 407 103 1063 175 309 198 336 96 29 132 39 98 83 133 104 1188 85 57 178 122 17
internal_value=0.000731606 0.0429799 0.0731272 0.078329 -0.0522533 0.0293403 0.059035 -0.0841766 0.0933598 0.0765641 0.0917967 0.124984 0.0932234 0.0447481 0.0494498 -0.0333685 -0.00157384 0.119192 0.0586534 -0.0316364 -0.0445127 -0.071177 0.0667932 0.0134382 0.107243 0.0142481 -0.00622825 -0.0198564 0.0227879 -0.0729423
internal_weight=3148.44 2102.36 1596.85 1547.12 505.504 363.24 259.073 1046.08 1183.88 773.215 190.31 410.661 611.766 137.238 79.3023 199.716 130.892 148.741 86.8497 68.7633 104.168 426.202 62.6005 161.449 474.528 50.1954 41.5685 97.2434 53.925 43.3184
internal_count=12924 7855 5608 5372 2247 1335 926 5069 4037 2658 662 1379 2079 484 291 868 532 502 316 264 409 1956 229 579 1595 183 160 400 205 195
is_linear=0
shrinkage=0.1


Tree=17
num_leaves=31
num_cat=0
split_feature=7 1 11 1 11 1 2 8 6 9 3 3 9 2 6 4 0 2 8 5 2 1 1 0 2 8 2 4 10 1
split_gain=315.403 369.888 356.567 106.988 141.217 86.1777 252.628 96.79 53.0774 51.1605 48.353 39.3881 38.9496 65.373 41.3224 37.2129 32.8722 45.8834 30.7651 29.2002 33.9545 28.4095 27.214 26.6602 27.6707 32.2019 25.3499 24.3957 22.7723 21.2537
threshold=19.945418500000006 203.84209000000001 1.7658704500000002 112.79699000000001 10.703371500000001 160.52300500000004 -65.581214999999986 22.990486000000004 -25.979988499999997 -7.7320089499999991 27.419384000000004 15.670568000000001 -13.268360499999998 -86.999654999999976 16.251466500000003 3.3982602500000003 -264.55791499999992 -79.147651999999979 9.2057910000000032 14.738596500000002 7.0131881000000016 229.15667500000004 192.61716000000004 -458.26504499999993 33.63607600000001 9.7025745000000025 -73.774686999999986 21.255525000000002 -29.857191999999994 137.83510500000003
decision_type=2 2 2 2 2 2 2 2 2 2 2 2 2 2 2 2 2 2 2 2 2 2 2 2 2 2 2 2 2 2
left_child=1 2 5 4 8 7 10 16 27 26 -7 -10 -3 21 -15 -16 28 -18 -19 -6 -21 -14 -12 24 25 -8 -5 -4 -1 -30
right_child=-2 12 3 9 19 6 23 -9 11 -11 22 -13 13 14 15 -17 17 18 -20 20 -22 -23 -24 -25 -26 -27 -28 -29 29 -31
leaf_value=-0.077390399306350152 -0.083102227482877766 -0.071191641434564232 0.12156345793840734 0.10349995719001948 -0.088614430091071408 0.14340436414869737 0.27812187185705323 -0.049312613430206674 -0.023563642475581292 -0.060309667606020072 0.097247266241817509 0.17952427247471608 0.1210286056894623 -0.062462055703382591 -0.063062563464344717 0.14363653412151975 0.17072558392680445 -0.064760019193661686 0.12322540250925414 -0.050266180369603043 0.19375981643228535 -0.073527005586140393 -0.06020619085067818 -0.054120183933045365 -0.095971174446352225 -0.022811402731555422 -0.049163997314726565 -0.090504705046752412 0.15722971743108405 0.10343832315641487
leaf_weight=4.8084842115640631 379.21341806650162 344.14884485304356 8.4382764399051684 31.102924928069115 62.110276579856873 181.93265281617641 8.0086359828710574 33.539070978760719 10.912308737635611 341.86601987481117 24.617659822106361 76.488599866628647 39.63205674290657 185.9763647466898 15.227461084723471 20.349980652332306 23.85065396130085 27.171241015195847 12.810330003499983 15.33492670953274 9.0771110653877241 9.2588569521903974 19.810810804367065 153.25155898928642 7.1649176031351081 6.3953646123409262 16.726046085357666 15.188240051269529 254.2368588745594 103.29707907140255
leaf_count=26 2450 2091 35 128 405 670 35 182 51 1989 99 278 176 1111 90 90 85 126 52 91 44 56 101 882 42 34 98 88 903 416
internal_value=0.000717112 0.0161265 0.0437134 -0.0163668 0.0435824 0.084696 0.0508275 0.114252 0.118219 -0.0467571 0.120565 0.154168 -0.0488753 -0.0204771 -0.0435729 0.0551675 0.127124 0.0609546 -0.00452839 -0.0521937 0.0404698 0.0841841 0.0270382 -0.0394699 0.0646237 0.144508 0.0501126 -0.014764 0.138781 0.141689
internal_weight=2441.95 2062.73 1448.14 587.245 197.55 860.895 401.182 459.714 111.027 389.695 226.361 87.4009 614.594 270.445 221.554 35.5774 426.175 63.8322 39.9816 86.5223 24.412 48.8909 44.4285 174.82 21.5689 14.404 47.829 23.6265 362.342 357.534
internal_count=12924 10474 6860 3207 992 3653 1863 1790 452 2215 870 329 3614 1523 1291 180 1608 263 178 540 135 232 200 993 111 69 226 123 1345 1319
is_linear=0
shrinkage=0.1


Tree=18
num_leaves=31
num_cat=0
split_feature=3 10 10 5 3 11 9 5 6 8 9 1 9 5 11 10 4 3 11 12 7 8 0 3 12 11 5 8 9 0
split_gain=1256.28 328.283 198.123 121.3 116.002 58.1532 53.7432 111.8 45.648 33.2072 24.5006 17.119 14.0666 13.846 16.6512 13.4587 13.1338 12.8703 34.8132 18.1448 18.5692 16.3402 12.8562 10.2292 9.09631 8.72322 23.696 7.0488 19.5584 7.24759
threshold=-1.1150364999999998 6.7573216000000009 3.1439918000000007 -16.465265499999997 23.790696000000004 1.9323116000000002 10.848439000000001 12.571688500000002 13.516021000000002 14.252575000000002 -11.576144499999998 218.62639000000004 -11.728474999999998 11.850256000000002 8.9575530000000025 6.428550200000001 8.0266330000000021 8.725059250000001 1.0625209500000004 4.8399520000000011 -16.276376499999994 6.2507620000000008 -152.26196999999996 -25.085029499999994 8.9733247500000015 -1.65034295 10.580345000000003 10.193066000000002 5.5556515000000006 -188.87385999999998
decision_type=2 2 2 2 2 2 2 2 2 2 2 2 2 2 2 2 2 2 2 2 2 2 2 2 2 2 2 2 2 2
left_child=2 6 3 10 5 9 17 16 22 -3 -1 12 -4 -7 -15 -13 -8 18 -2 20 -20 -21 23 -5 -6 26 -14 29 -29 -25
right_child=1 4 11 8 24 13 7 -9 -10 -11 -12 15 25 14 -16 -17 -18 -19 19 21 -22 -23 -24 27 -26 -27 -28 28 -30 -31
leaf_value=-0.019173845657065574 -0.080818840842416237 -0.067021039561970613 0.017795228933476584 0.11906708566669531 -0.063903915915203113 0.20467445885322541 0.20092622924914083 -0.075962802651674419 0.1940264686751923 0.19508906263570025 0.21137437588268104 -0.030160092328175965 0.18912719815173265 -0.038349998691351722 0.23793572206922464 0.16965748846253065 0.013943074435239783 -0.084028401854118834 0.15671481199089768 -0.0052654472135059624 -0.056937452964913329 0.28074227437677129 0.17607964204499313 -0.083858343091008383 0.10485539738052768 0.2073263675283038 -0.070619375936489856 -0.093121989398525062 0.19568372478554674 0.010296120982598252
leaf_weight=5.2434599176049224 87.209968514740467 16.624050714075569 4.2303772419691077 3.396878905594348 39.019888453185558 67.73175635188818 22.752867132425312 57.330813325941563 8.982592009007929 6.8150466680526725 38.124224625527859 5.8730682581663114 20.871701389551166 5.4089583680033666 3.6556402668356895 7.9117723703384399 4.4993542432785025 859.80369932949543 5.3990643844008508 3.2834960743784887 16.500338472425938 5.1005855873227119 2.5818532630801192 56.113369800150387 3.4787107035517684 244.73656276613474 4.222755827009677 5.950052008032797 3.8700581267476082 9.5697103962302261
leaf_count=40 799 137 28 14 349 241 85 551 39 32 150 38 86 38 15 31 29 8491 32 21 120 22 19 465 23 860 31 45 18 75
internal_value=-0.00202761 -0.0540285 0.146524 0.0459983 0.0883598 0.147061 -0.0731678 0.00330295 -0.0199182 0.00918892 0.183499 0.193263 0.198732 0.189141 0.0730726 0.0845247 0.170055 -0.0797862 -0.0487425 0.0436306 -0.00426376 0.168732 -0.0435035 -0.0506889 -0.0500902 0.201569 0.145418 -0.0583262 0.020695 -0.0701405
internal_weight=1626.29 1204.61 421.678 133.832 142.734 100.235 1061.88 84.583 90.4645 23.4391 43.3677 287.846 274.061 76.7964 9.0646 13.7848 27.2522 977.297 117.493 30.2835 21.8994 8.38408 81.4819 78.9001 42.4986 269.831 25.0945 75.5032 9.82011 65.6831
internal_count=12924 10985 1939 865 835 463 10150 665 675 169 190 1074 1005 294 53 69 114 9485 994 195 152 43 636 617 372 977 117 603 63 540
is_linear=0
shrinkage=0.1


Tree=19
num_leaves=31
num_cat=0
split_feature=1 7 0 9 0 5 0 1 8 5 5 10 10 1 3 10 6 3 10 6 6 11 0 2 0 7 4 8 2 1
split_gain=540.865 115.491 143.192 129.323 114.94 79.1562 53.3056 47.1011 35.7277 37.3804 31.422 30.2586 34.3678 29.9277 24.809 23.7228 21.4807 22.5442 20.4081 18.8859 18.71 18.3588 18.2575 17.4272 21.5319 17.1532 16.7194 17.1757 16.5574 18.3413
threshold=163.68624000000003 25.229838500000003 -165.07690499999998 -0.75380146499999989 -374.6627049999999 -8.8013264999999983 -189.55575499999995 203.25574000000003 16.472752500000002 22.612589000000003 -1.2584225499999999 8.7310670000000012 -2.2317413499999996 198.77724000000003 0.43858695000000009 -3.3471279499999995 7.0720973000000011 30.310644000000003 -5.8076987499999992 7.2925507500000011 11.584599500000001 2.7332333500000003 -251.11150499999997 -21.953090999999997 -203.69652499999998 -9.0407429999999973 -23.147447999999994 3.4116011500000005 -28.456674499999995 205.87970000000004
decision_type=2 2 2 2 2 2 2 2 2 2 2 2 2 2 2 2 2 2 2 2 2 2 2 2 2 2 2 2 2 2
left_child=-1 2 3 6 -5 -6 -2 -4 9 11 13 12 19 -8 -3 -9 17 18 -15 -7 21 -17 28 -24 -25 26 -20 -28 -14 -30
right_child=1 14 7 4 5 8 10 15 -10 -11 -12 -13 22 16 -16 20 -18 -19 25 -21 -22 -23 23 24 -26 -27 27 -29 29 -31
leaf_value=-0.079552619873570138 -0.050579642060618435 -0.087903101165242484 0.01392480200896426 -0.073194664146316743 -0.072687152891876911 0.11069982266868705 -0.057356135137656195 0.060120885412936011 -0.051668452948889734 0.013443430968780604 -0.059508807739874929 -0.061896246688575497 0.050202332273863393 -0.0074332257656309049 0.21175510323951729 0.17619870042517674 -0.051513186045137306 -0.053956648860432645 0.067356211423688805 -0.034842047930019833 -0.049229251107411061 -0.030582732647160854 0.24110048801369272 0.19206408655079685 0.006450468956364655 0.021827346443743099 0.05353791859819873 0.23990221823892319 0.099629410956753248 0.22718822962638086
leaf_weight=539.75473085045815 240.94931448996067 2.9347714707255355 36.262247800827026 50.310372225940228 26.19121115654707 27.25742357224226 19.475471593439579 29.136457689106464 12.794510304927824 28.484780035912991 31.590633392333984 7.403051257133483 19.150895893573761 10.610219560563563 47.162545070052147 111.0067685097456 10.802613563835619 8.4719595015048963 11.756622590124598 13.24978558719158 4.098082832992076 4.4663581252098075 44.451525814831257 24.814751893281937 8.3536771386861783 9.4719723910093361 6.0418390333652487 27.247271545231342 23.365361735224724 21.779214017093182
leaf_count=6038 2423 32 278 542 270 157 187 162 106 215 311 68 111 83 166 516 101 74 85 86 24 27 194 114 44 68 42 164 138 98
internal_value=-9.77094e-05 0.0465638 0.0380525 0.0169436 0.0650429 0.0920732 -0.0223628 0.116114 0.110746 0.120264 0.0278246 0.136293 0.144336 0.0543838 0.194201 0.141033 0.0801672 0.0994946 0.119456 0.0630935 0.160749 0.168201 0.167526 0.20017 0.145316 0.144151 0.169872 0.206078 0.128116 0.161168
internal_weight=1458.85 919.092 868.994 684.024 307.607 257.296 376.418 184.97 231.105 218.31 135.469 189.826 182.423 103.878 50.0973 148.708 84.4025 73.5999 65.1279 40.5072 119.571 115.473 141.915 77.62 33.1684 54.5177 45.0457 33.2891 64.2955 45.1446
internal_count=12924 6886 6688 5681 2143 1601 3538 1007 1331 1225 1115 1010 942 804 198 729 617 516 442 243 567 543 699 352 158 359 291 206 347 236
is_linear=0
shrinkage=0.1


Tree=20
num_leaves=31
num_cat=0
split_feature=1 7 4 2 4 1 2 7 12 4 3 10 10 2 1 2 4 1 12 7 5 8 9 4 2 0 8 4 2 0
split_gain=1676.87 257.364 166.585 152.166 88.2746 67.3902 58.7665 58.2777 57.6875 46.2618 35.4851 34.417 32.5353 29.2752 29.9793 24.3459 24.2088 21.1116 18.8955 23.0634 16.6844 16.0586 15.914 29.8247 15.1484 14.792 14.6919 26.6749 17.7552 14.5442
threshold=131.01441000000003 18.240288500000002 20.911956000000004 10.825532500000003 15.811271500000002 158.06747000000004 -6.2743176499999995 19.609856500000003 -3.6157527999999997 -4.0696898999999993 10.301355500000001 -26.496299999999994 -1.1712617999999997 -19.863847999999994 75.051562500000017 31.076873500000001 -0.65073214999999995 205.87970000000004 4.5832162500000004 2.3147451500000007 24.129282500000006 7.5532629500000015 0.97283252500000017 28.617040500000005 37.478793000000003 -243.64903499999997 17.607749000000002 2.6062759000000004 -57.764415499999991 -455.67248499999994
decision_type=2 2 2 2 2 2 2 2 2 2 2 2 2 2 2 2 2 2 2 2 2 2 2 2 2 2 2 2 2 2
left_child=1 3 5 4 8 7 17 12 16 -3 -9 -10 24 -6 22 18 20 -4 19 -5 -1 -21 -15 -24 25 -2 -7 -28 -29 -8
right_child=2 9 6 15 13 26 29 10 11 -11 -12 -13 -14 14 -16 -17 -18 -19 -20 21 -22 -23 23 -25 -26 -27 27 28 -30 -31
leaf_value=-0.015952037771791057 0.044427140434850063 -0.02568238989753174 0.13907432997446101 -0.097199171398667503 0.13999807578085155 -0.085363875335467951 0.099278478487858618 -0.073198601603377822 0.11120959197397598 0.13677404318170996 0.12469009594704844 -0.06048920812677229 -0.082746938592225164 0.12658691107351705 -0.063372001317908364 -0.091541241692914263 0.1527233149040054 -0.022880612041752249 -0.078589743049818417 0.10755350242066748 0.14861632200531408 -0.0096867523441104067 -0.043521741678688858 0.13778136444796951 -0.098118586816839548 -0.046942299280761414 -0.068976993122860208 0.19025760545656212 -0.022807464599648348 -0.08037153893995877
leaf_weight=23.321495652198795 51.428286269307137 18.029531553387642 56.037613317370415 12.990281283855436 138.02866646647453 1221.8324879705906 5.4320062696933773 12.22481259703636 13.643573760986326 630.99099658429623 35.019874542951584 80.891268610954285 123.47650566697121 52.646564051508904 14.556891396641729 65.293182417750359 30.119727432727814 9.398797005414961 28.132846459746361 25.264751210808754 8.3720964640378934 21.732791975140572 19.543683975934982 16.935919344425201 14.558765709400175 27.031580656766891 70.202233657240868 7.2316886633634558 8.5178463757038099 26.447767615318298
leaf_count=94 211 76 182 61 448 6583 21 60 45 2049 116 375 650 174 60 342 99 41 136 92 28 88 80 56 78 115 370 29 39 126
internal_value=-0.000552727 0.0895808 -0.065391 0.0393511 0.0719614 -0.0732532 0.0615723 -0.0271408 0.0134088 0.132261 0.0734853 -0.0357091 -0.0491 0.109835 0.0696811 -0.045262 0.0885277 0.115812 -0.0109714 0.02074 0.0275199 0.0533388 0.0914125 0.0406495 -0.00443565 0.0129479 -0.0825527 -0.0425905 0.0750253 -0.0497609
internal_weight=2869.33 1200.49 1668.84 551.474 398.06 1571.52 97.3162 263.74 156.348 649.021 47.2447 94.5348 216.495 241.712 103.683 153.414 61.8133 65.4364 88.1207 59.9878 31.6936 46.9975 89.1262 36.4796 93.0186 78.4599 1307.78 85.9518 15.7495 31.8798
internal_count=12924 4303 8621 2178 1459 8251 370 1230 641 2125 176 420 1054 818 370 719 221 223 377 241 122 180 310 136 404 326 7021 438 68 147
is_linear=0
shrinkage=0.1


Tree=21
num_leaves=31
num_cat=0
split_feature=1 3 7 8 3 1 9 0 9 5 10 9 1 2 0 9 1 1 8 1 1 5 6 8 0 11 11 2 3 0
split_gain=927.786 497.471 124.521 99.8453 80.2682 76.5034 60.9071 56.5142 55.5003 49.0262 46.1305 34.4174 45.3451 45.2314 42.7707 38.4297 36.8112 34.9993 33.1188 31.1006 29.9056 25.2847 24.8314 22.7379 35.0887 22.2485 21.9294 21.6855 20.905 18.8258
threshold=140.59279000000004 2.1625169500000005 22.433386000000002 11.802054500000002 12.462123000000002 191.29976500000001 -0.16805789499999998 -156.32690999999997 -15.472789999999998 12.350676000000002 -4.1985203499999999 7.0460133500000008 168.95069500000002 -84.744197999999997 -167.96497999999997 -4.5003001499999993 182.60224000000002 213.30538500000003 1.8944823000000002 201.06125500000005 121.711775 -3.4978396999999997 6.8423508500000016 12.394581500000003 -273.15418499999993 -7.1146802499999993 9.7226745000000019 -99.932254999999984 29.606803000000003 -292.75009999999992
decision_type=2 2 2 2 2 2 2 2 2 2 2 2 2 2 2 2 2 2 2 2 2 2 2 2 2 2 2 2 2 2
left_child=20 10 3 4 8 9 7 21 27 -5 19 13 -13 14 16 -15 -6 25 -10 -2 -1 -7 -9 24 -22 -17 -26 -3 -16 -14
right_child=1 2 -4 5 11 6 -8 22 18 -11 -12 12 29 15 28 17 -18 -19 -20 -21 23 -23 -24 -25 26 -27 -28 -29 -30 -31
leaf_value=-0.094510935752967262 -0.050631058904571175 -0.0080901282805277974 -0.09123179267500009 -0.082092332062240925 -0.073862133274366068 0.038764231399628125 -0.05091119867136254 -0.055537570571751585 0.058863244136760341 0.075076982185339203 -0.079392677802555031 0.11333287963630048 0.10699167495270215 0.12968632294708199 -0.032064341150223101 -0.073076738077948969 0.10653459363520051 -0.039010063698107687 -0.027332539105497579 0.079761268443695812 -0.055474465126771913 0.12791684713088086 0.083850072067451653 -0.097982796328704935 0.12294930702554907 0.096953956699995042 -0.077938023068501908 0.13500714677394943 0.091332299069813883 -0.019674498674097159
leaf_weight=719.28046490252018 40.726676717400551 13.179612800478933 53.27882519364357 91.88946333527565 12.432747468352316 44.189314365386963 49.838360339403152 40.562458276748657 67.266826346516609 25.314521104097366 332.71265102922916 58.587969765067101 13.901501581072806 398.71750789880753 58.371084854006767 7.9385524541139594 125.43356810510159 22.22225421667099 132.1471288651228 33.206861138343811 74.447505205869675 113.57421554625034 18.660203173756599 56.115392759442329 22.140450879931453 251.51786720752716 7.2015458345413199 53.903491601347923 17.951362684369087 75.240571245551109
leaf_count=3946 177 53 273 420 55 154 200 165 246 91 1668 193 48 1295 231 27 411 84 514 116 345 369 65 303 83 838 34 181 63 276
internal_value=0.000745776 0.036097 0.0592954 0.0640329 0.0771882 0.0191984 0.0487797 0.0716771 0.0282118 -0.0481458 -0.0635156 0.0897103 0.044994 0.0970947 0.057018 0.109711 0.0902665 0.0814355 0.00174324 0.00793397 -0.085815 0.102945 -0.0116185 -0.046699 -0.0189716 0.0917516 0.0736446 0.106893 -0.00304093 7.88003e-05
internal_weight=3031.95 2152.77 1746.12 1692.84 1308.81 384.029 266.825 216.986 266.497 117.204 406.646 1042.31 147.73 894.585 214.189 680.396 137.866 281.679 199.414 73.9335 879.185 157.764 59.2227 159.905 103.79 259.456 29.342 67.0831 76.3224 89.1421
internal_count=12924 8213 6252 5979 4515 1464 953 753 994 511 1961 3521 517 3004 760 2244 466 949 760 293 4711 523 230 765 462 865 117 234 294 324
is_linear=0
shrinkage=0.1


Tree=22
num_leaves=31
num_cat=0
split_feature=7 1 11 1 11 1 2 8 9 5 3 9 2 6 2 0 5 2 5 9 0 2 8 1 0 2 8 5 6 4
split_gain=265.099 297.095 271.447 89.5568 113.61 63.2374 192.862 71.4989 45.9447 38.8858 35.2288 35.1105 53.9065 36.4373 31.5621 33.2792 25.5622 27.3823 25.3165 24.593 24.5896 33.0842 27.4469 22.2644 22.092 22.9413 28.1758 21.5984 21.4457 23.5126
threshold=19.945418500000006 203.84209000000001 1.7658704500000002 118.96911000000001 10.703371500000001 160.52300500000004 -65.581214999999986 22.990486000000004 -7.7320089499999991 27.086993500000002 32.603467500000001 -13.268360499999998 -86.999654999999976 12.530740500000002 -27.246529499999998 -251.11150499999997 14.738596500000002 7.0131881000000016 3.8512222500000006 21.839744500000005 -264.55791499999992 -75.036909999999992 9.2057910000000032 229.15667500000004 -450.38921999999997 33.63607600000001 9.7025745000000025 -1.8196188 -22.519068999999998 -4.910687349999999
decision_type=2 2 2 2 2 2 2 2 2 2 2 2 2 2 2 2 2 2 2 2 2 2 2 2 2 2 2 2 2 2
left_child=1 2 5 4 9 7 10 19 -5 18 -7 -3 23 -14 15 27 -6 -18 -4 20 -1 -22 -23 -13 25 26 -8 -15 -11 -30
right_child=-2 11 3 8 16 6 24 -9 -10 28 -12 12 13 14 -16 -17 17 -19 -20 -21 21 22 -24 -25 -26 -27 -28 -29 29 -31
leaf_value=0.12170703504647401 -0.08028700579076653 -0.067867506735585198 -0.05599674404826363 0.046276032630585863 -0.086711534847507321 0.11875948878763275 0.21674842052418777 -0.045907207213524003 -0.059009216554667593 -0.087767606350838301 0.0070858287394619862 0.10471283644909544 -0.067466757708277536 -0.013023593708275813 -0.06402435150923666 -0.067050652418876464 -0.050756599353748856 0.15677758375376324 0.14832198631093718 -0.10077317788483083 0.13910439325166465 -0.064709140606682411 0.12069880632389517 -0.071011805430486907 -0.052564599276234025 -0.094441816271447168 -0.035120931714220198 0.19364546134716998 -0.10294228101966113 0.16358324609083469
leaf_weight=371.68940897285938 343.11521507054567 319.1506232470274 6.5399310141801825 47.798587985336781 59.16755399107933 202.90256154537201 10.429713100194936 31.867436543107033 311.94918730854988 14.118039071559908 32.817466735839844 41.769480511546135 149.07647459954023 6.7731749713420895 24.740090265870094 10.753553569316862 16.073838800191883 10.517475560307501 83.400289848446846 5.508618861436843 26.863931432366371 25.477962851524353 11.628400161862372 8.7144631892442685 141.88741558790207 7.9218788146972647 7.735655114054679 19.954374268651009 4.7623031735420236 10.853490099310871
leaf_count=1322 2450 2091 35 219 426 715 41 182 1936 89 155 176 957 35 148 68 103 46 293 28 91 123 44 56 859 50 43 83 23 37
internal_value=0.000988877 0.0147749 0.0391003 -0.0149393 0.0377375 0.0739367 0.0448648 0.0987471 -0.0450203 0.10069 0.103212 -0.0456023 -0.0184577 -0.0406386 0.0236392 0.0815032 -0.050111 0.0313279 0.133465 0.109196 0.111851 0.0545842 -0.00660596 0.0743795 -0.0370143 0.0475628 0.109491 0.141272 0.00155043 0.0823017
internal_weight=2365.96 2022.84 1441.91 565.181 205.433 876.73 403.695 473.036 359.748 119.674 235.72 580.932 261.782 211.298 62.2212 37.4811 85.7589 26.5913 89.9402 441.168 435.66 63.9703 37.1064 50.4839 167.975 26.0872 18.1654 26.7275 29.7338 15.6158
internal_count=12924 10474 6860 3207 1052 3653 1863 1790 2155 477 870 3614 1523 1291 334 186 575 149 328 1608 1580 258 167 232 993 134 84 118 149 60
is_linear=0
shrinkage=0.1


Tree=23
num_leaves=31
num_cat=0
split_feature=10 3 5 9 3 9 9 5 9 7 5 11 5 6 7 8 3 12 5 4 12 8 9 0 8 4 12 5 1 7
split_gain=996.534 287.033 259.001 59.2269 57.4298 42.3416 35.9946 70.7779 29.4486 31.9661 21.8521 62.648 17.7798 15.2182 17.2562 15.1729 13.8128 30.3544 23.8345 13.3934 12.9034 11.2121 12.9099 10.3882 12.2432 9.33288 8.72894 7.40562 6.92893 7.64518
threshold=4.5343918500000013 16.186455000000006 -16.465265499999997 -11.576144499999998 -27.920201499999997 -6.9057206499999984 11.312147500000002 12.774333000000002 9.8739455000000014 2.5238965000000007 8.9763000000000019 1.6702505000000001 7.8807325000000015 14.754204000000001 4.209127500000001 -1.1362186999999999 8.725059250000001 1.1936036000000001 -4.3103229999999995 -7.0154585999999988 8.9733247500000015 7.0716683500000004 4.5682290000000014 -149.18365499999996 7.5532629500000015 6.0768239500000005 0.73040160500000006 13.704565500000003 219.10340500000004 4.3724770500000014
decision_type=2 2 2 2 2 2 2 2 2 2 2 2 2 2 2 2 2 2 2 2 2 2 2 2 2 2 2 2 2 2
left_child=2 5 3 -1 -4 15 16 25 20 -10 28 -12 -11 14 -13 -2 17 23 -19 -5 -3 -20 -23 -6 -25 -8 -21 -16 -7 -30
right_child=1 8 4 19 6 10 7 -9 9 12 11 13 -14 -15 27 -17 -18 18 21 26 -22 22 -24 24 -26 -27 -28 -29 29 -31
leaf_value=-0.057109638713514689 0.1378911905333019 -0.073541832178330602 0.18578559611645099 0.18117305030949243 -0.077053203800342196 0.17993683186155129 0.15721861276293728 -0.077505077843747786 0.24590000938091225 0.15769627176438183 -0.072645010872914084 0.21853307388066967 -0.073378884955590432 0.17912298797671691 0.094455767429694082 -0.06132488880494287 -0.083899578151019838 0.25008659729726768 -0.053875937354547522 -0.068131366685096659 0.10645670763026467 -0.067009932813182224 0.16419600051436653 -0.061982718678270966 0.22995546057645339 -0.0058150492702979083 0.16386951469963207 -0.065972521701400957 0.19933004783690716 0.044257738144822791
leaf_weight=14.962561994791029 5.650390803813937 73.307730607688427 8.6874127611517888 54.52848494797945 140.03757311403751 264.37033879756927 21.131156459450725 46.617760695517063 6.8438602238893536 4.5753687843680408 14.243706732988356 5.506245598196986 12.231642439961432 60.444176018238068 5.0957403853535634 11.822168096899984 732.58224619179964 4.5319269746542004 15.100919641554357 3.8078546747565261 4.211373306810855 3.7782032489776594 6.6936755776405334 3.4942300841212264 2.4393774196505547 4.2109581604599944 2.8248197063803673 6.6096365377306938 5.2766510695219022 7.9981073141098022
leaf_count=141 24 738 30 202 1289 896 76 480 29 19 116 22 113 197 22 92 7978 17 124 34 25 29 37 29 17 26 13 45 24 40
internal_value=-0.00230577 0.11601 -0.056519 0.121224 -0.0701957 0.155214 -0.0724635 -0.00438285 -0.0339624 0.0637135 0.162407 0.12014 -0.0104733 0.1555 0.0725419 0.00309891 -0.077855 -0.0527061 0.0387213 0.164852 -0.0637631 0.0012639 0.080778 -0.0715619 0.0580366 0.130128 0.0306765 0.00386726 0.176397 0.105898
internal_weight=1553.62 488.187 1065.43 76.1237 989.305 387.017 980.618 71.9599 101.17 23.6509 369.545 91.8995 16.807 77.6558 17.2116 17.4726 908.658 176.076 30.1047 61.1612 77.5191 25.5728 10.4719 145.971 5.93361 25.3421 6.63267 11.7054 277.645 13.2748
internal_count=12924 2402 10522 390 10132 1478 10102 582 924 161 1362 402 132 286 89 116 9520 1542 207 249 763 190 66 1335 46 102 47 67 960 64
is_linear=0
shrinkage=0.1


Tree=24
num_leaves=31
num_cat=0
split_feature=1 0 2 10 0 2 1 7 0 9 1 6 1 3 12 11 7 4 8 3 4 8 6 8 0 6 9 6 9 11
split_gain=460.99 83.9469 151.394 112.397 60.2917 48.1842 35.3571 33.7209 41.3075 29.892 30.6186 27.4405 28.2046 23.0138 22.1438 19.0229 18.8901 19.7075 19.7614 17.2186 16.3852 17.8419 17.9007 15.3025 15.4381 15.1496 14.4307 16.4521 14.2878 18.5433
threshold=163.68624000000003 -161.15048999999996 -42.440434999999987 7.5571854500000013 -189.55575499999995 45.120626500000007 209.91491500000004 24.234286500000003 -390.61306999999994 -6.5914516999999995 182.00848000000005 6.1382345000000011 196.83143000000004 30.310644000000003 8.3749700000000029 -19.946376999999995 -9.0407429999999973 -22.249686499999996 1.5773449500000003 36.518110000000007 9.547328000000002 4.2597802000000007 13.516021000000002 16.168362500000004 -128.78945499999998 -2.1466656499999996 -15.174661499999997 1.1478455000000001 7.0460133500000008 2.2816993000000001
decision_type=2 2 2 2 2 2 2 2 2 2 2 2 2 2 2 2 2 2 2 2 2 2 2 2 2 2 2 2 2 2
left_child=15 2 4 5 -2 7 23 8 -4 -10 28 12 -6 16 20 -1 17 26 -19 -8 25 22 -22 24 -3 -12 -14 -28 -11 -30
right_child=1 6 3 -5 11 -7 19 -9 9 10 14 -13 13 -15 -16 -17 -18 18 -20 -21 21 -23 -24 -25 -26 -27 27 -29 29 -31
leaf_value=0.24651689298038143 -0.051064210463699938 0.024406665695669419 -0.059280538904936821 -0.073814724124253647 -0.04613891546452846 -0.081556601407380538 0.14370187280197025 0.17633242636278423 -0.076162464710628167 -0.0038914278600605864 0.017643817157957337 -0.04898359619515795 -0.068133766382043201 -0.045360419820459026 -0.061850275549372995 -0.079307290820591791 -0.0080181092202143076 -0.016323758302982303 0.17039639127705195 0.026297908471709281 0.093927830730482081 0.022582324674935008 0.33451182284820924 -0.081620427090343228 0.18568728723413661 0.15962172025841811 -0.047639838928780071 0.20031971100527809 -0.016770944168335158 0.14685223100792233
leaf_weight=1.7984923273324955 220.0141360014677 27.631066538393494 17.959198288619518 46.013713330030441 23.887464627623558 15.071213603019713 115.22090890258551 50.499766536056995 9.4873769730329496 30.70684664696455 8.0198063105344755 34.686461187899113 8.5214915275573748 13.782906651496885 6.0244482681155196 487.72583371400833 15.091272145509718 6.4700405970215789 45.728155829012394 14.011056728661059 11.166861116886137 23.837457023561001 4.2773092165589324 9.9113314598798734 7.5587004795670536 119.51899021118879 4.3670016750693303 6.9096244871616364 10.396589525043966 20.749728158116341
leaf_count=20 2349 206 195 531 238 164 476 174 107 209 54 333 69 129 42 6018 114 49 252 73 60 139 21 72 54 523 33 38 76 106
internal_value=0.000400444 0.0418366 0.0273629 0.0725388 -0.0171309 0.093088 0.104369 0.101507 0.0870923 0.0978577 0.104892 0.029693 0.0515674 0.0747055 0.126499 -0.0781102 0.0937078 0.115031 0.147252 0.130973 0.133301 0.0768297 0.160558 0.0281361 0.0590495 0.150694 0.0300781 0.104295 0.0445133 0.0922351
internal_weight=1417.05 927.521 753.188 373.729 379.459 327.716 174.333 312.644 262.145 244.185 234.698 159.444 124.758 100.87 172.845 489.524 87.0876 71.9963 52.1982 129.232 166.82 39.2816 15.4442 45.1011 35.1898 127.539 19.7981 11.2766 61.8532 31.1463
internal_count=12924 6886 6005 2401 3604 1870 881 1706 1532 1337 1230 1255 922 684 839 6038 555 441 301 549 797 220 81 332 260 577 140 71 391 182
is_linear=0
shrinkage=0.1


Tree=25
num_leaves=31
num_cat=0
split_feature=1 7 4 2 6 1 2 7 2 12 4 4 2 4 6 7 4 8 1 0 3 10 1 2 4 11 12 4 7 10
split_gain=1364.95 201.447 141.672 119.151 75.7512 62.3999 51.0907 49.2459 48.0248 45.5511 39.9932 39.0762 31.825 29.4802 21.1748 30.4971 18.7696 17.4524 16.9787 16.3906 16.3075 16.2323 14.1781 19.2781 42.2374 16.8925 13.8337 15.2809 13.0953 12.5711
threshold=131.01441000000003 17.105590000000003 20.911956000000004 -21.239005999999996 -15.842813499999998 159.77525500000004 14.662078000000003 16.841383000000004 -6.2743176499999995 -1.7853476999999998 -0.65073214999999995 12.203316000000003 34.854254000000005 -11.648614499999999 -31.217033499999996 9.1971945000000002 2.3198747500000003 -4.3932724999999992 205.87970000000004 -504.94410999999997 10.707454500000003 -29.857191999999994 209.91491500000004 -71.938687499999986 -4.2476899999999995 -0.42605535999999994 1.0000000180025095e-35 27.680167000000004 -2.5264614499999998 -21.587932499999997
decision_type=2 2 2 2 2 2 2 2 2 2 2 2 2 2 2 2 2 2 2 2 2 2 2 2 2 2 2 2 2 2
left_child=1 3 5 11 14 6 7 16 18 12 -3 -1 19 -9 -5 21 -2 -11 -4 -6 -18 -16 23 24 -7 -26 -17 -28 -10 -19
right_child=2 10 8 4 9 22 -8 13 28 17 -12 -13 -14 -15 15 26 20 29 -20 -21 -22 -23 -24 -25 25 -27 27 -29 -30 -31
leaf_value=-0.018890209195674523 -0.045817961293623866 0.0017485800712953537 0.12592357683419797 0.12767194606801069 0.12637589424503767 -0.060546875622200451 -0.086320237450036183 -0.088202247283272528 0.10827075460471328 0.10611898492222312 0.12290533106197206 0.12655479446089232 -0.097429733782814498 0.1335512730647905 0.13448335607744463 0.12275954543175337 0.13419747381055824 0.044396453091899074 -0.020680372850654175 0.01928742445116019 -0.015749968581790695 -0.06097775668281008 -0.092285200550752039 -0.081957123259725692 -0.041460471936148074 0.14575979472006267 -0.025922178460190279 0.12422025500860617 -0.074796702308768545 -0.089630388025692176
leaf_weight=21.437813609838486 101.26921379566193 28.479952037334442 55.301276594400406 34.234175220131874 20.638420656323433 198.0106814801693 92.865448206663132 7.1681597083806983 4.6003031283617046 5.1679667830467215 628.43650202453136 133.5227455496788 18.029023364186287 36.630177035927773 4.8927336335182181 33.623350158333778 12.047371968626978 7.4512710571289054 9.2162926793098432 46.48338471353054 18.224490091204643 32.279203742742538 512.8300878405571 456.64682930707932 7.1150117516517666 14.936786845326422 18.618341460824016 10.659575670957564 25.944000542163849 115.11299933493137
leaf_count=92 507 119 182 114 73 1123 526 39 17 20 2118 448 100 123 16 115 44 28 41 189 84 147 3052 2643 40 70 78 35 130 611
internal_value=-0.000912477 0.0812035 -0.0622066 0.0335204 0.000977283 -0.06992 -0.026348 0.00541522 0.056076 -0.0361241 0.117653 0.106433 0.0205304 0.0972585 0.0597846 0.036561 -0.0251652 -0.073892 0.104981 0.0522147 0.043925 -0.0352503 -0.0797442 -0.0702402 -0.0459267 0.0853532 0.0789983 0.028742 -0.0472248 -0.0814823
internal_weight=2711.87 1159.07 1552.81 502.151 347.19 1457.74 268.205 175.339 95.0619 212.883 656.916 154.961 85.1508 43.7983 134.307 100.073 131.541 127.732 64.5176 67.1218 30.2719 37.1719 1189.54 676.709 220.062 22.0518 62.9013 29.2779 30.5443 122.564
internal_count=12924 4303 8621 2066 1526 8251 1323 797 370 1021 2237 540 362 162 505 391 635 659 223 262 128 163 6928 3876 1233 110 228 113 147 639
is_linear=0
shrinkage=0.1


Tree=26
num_leaves=31
num_cat=0
split_feature=1 3 7 8 3 1 9 9 5 2 10 5 9 10 8 9 1 1 8 2 2 12 0 4 5 6 6 1 6 0
split_gain=768.739 405.297 102.506 86.0691 73.1922 70.7038 52.3603 48.5298 47.3159 43.8741 41.0649 36.8686 36.3164 28.2137 27.3438 26.7111 24.4924 23.7561 22.4627 21.8345 21.3885 65.7649 21.033 19.0387 19.0287 17.5501 16.9485 16.9301 16.4186 23.8108
threshold=135.30061500000002 2.1625169500000005 20.949901500000003 11.802054500000002 20.769113500000003 191.29976500000001 -15.472789999999998 -0.16805789499999998 -2.9821404499999997 -77.046822999999975 -4.1985203499999999 12.350676000000002 -8.6281934999999983 -0.73510733499999981 -1.1362186999999999 7.0460133500000008 215.55514500000001 167.14303000000004 4.7837363500000007 -94.750072999999986 14.047090500000001 -3.6157527999999997 -153.53148999999999 26.111219500000004 -5.7376691499999994 3.2944700500000006 5.1548322000000004 195.78992000000002 6.2690382000000007 -156.32690999999997
decision_type=2 2 2 2 2 2 2 2 2 2 2 2 2 2 2 2 2 2 2 2 2 2 2 2 2 2 2 2 2 2
left_child=-1 10 3 4 6 11 13 8 22 26 14 -5 -11 -3 -2 19 -16 -17 20 27 -14 -22 -7 -12 -15 -13 -8 -6 29 -10
right_child=1 2 -4 5 15 7 9 -9 28 12 23 25 18 24 16 17 -18 -19 -20 -21 21 -23 -24 -25 -26 -27 -28 -29 -30 -31
leaf_value=-0.086755448551736572 0.099766150358558112 0.11391725593524669 -0.08311457136814239 -0.079700836664763283 -0.093777895304357858 0.035588289098823465 -0.064821013585298279 -0.047480733266301207 0.098613342738428963 0.10216926499546169 -0.079304548498908722 -0.086770200698044753 0.017450313488717152 -0.014029116087554624 -0.065950763271390919 0.10349632475102991 0.10688089872774248 0.0072786365035748951 -0.014937729204443778 0.10460490739472261 -0.107808236548322 0.14894332199957325 -0.078362045678404352 0.13236074197428985 0.11787299576248987 0.095991418416216751 0.019446711993169403 0.062932587237680346 0.12670043721675381 -0.041099061401326013
leaf_weight=745.83426421880722 21.918867513537407 124.62657342851162 54.814924642443657 92.610476315021515 7.6969807595014563 50.580179184675217 64.577160984277725 48.191800206899643 41.29808896780014 75.455145552754402 314.0791662633419 6.9789871126413372 96.105165973305702 35.994001805782318 42.986756414175034 41.384026110172272 10.132084205746649 67.537670686841011 96.089399695396423 536.69672924280167 12.701201647520064 46.500355362892151 23.82989776134491 4.3077761381864539 15.71117354929447 21.260366022586823 37.860822752118111 66.069839552044868 81.736240029335022 17.311922371387482
leaf_count=4456 79 422 301 454 34 176 256 199 136 253 1705 30 352 138 191 134 34 242 374 1785 55 156 104 16 53 76 144 232 270 67
internal_value=0.000759722 0.0310196 0.0514928 0.0558107 0.0678894 0.0141108 0.0422738 0.0432084 0.0635593 0.023429 -0.0607564 -0.0492006 0.0413262 0.0881525 0.00579279 0.0894541 -0.0329842 0.0438359 0.0230645 0.0975935 0.0465768 0.0938594 -0.000904414 -0.0764407 0.0260508 0.0508243 -0.0336759 0.0465811 0.0977372 0.0573458
internal_weight=2902.88 2157.04 1763.62 1708.8 1325.01 383.798 605.621 262.948 214.756 429.289 393.425 120.85 326.851 176.332 75.0377 719.385 53.1188 108.922 251.396 610.464 155.307 59.2016 74.4101 318.387 51.7052 28.2394 102.438 73.7668 140.346 58.61
internal_count=12924 8468 6443 6142 4630 1512 2203 952 753 1590 2025 560 1190 613 304 2427 225 376 937 2051 563 211 280 1721 191 106 400 266 473 203
is_linear=0
shrinkage=0.1


Tree=27
num_leaves=31
num_cat=0
split_feature=7 1 11 1 2 1 5 10 1 3 4 11 6 3 6 9 9 4 8 4 3 3 1 1 3 2 2 9 2 1
split_gain=222.526 243.57 206.679 85.5656 186.037 68.3701 85.4135 66.619 53.6034 53.3153 44.1821 37.9475 36.5007 36.1895 31.5917 30.4252 29.0289 28.676 25.9757 23.0498 22.8598 21.8136 35.0749 28.9853 21.788 46.7093 21.6981 20.5438 19.4313 19.1294
threshold=20.519168000000004 210.49782500000003 3.1661558000000007 148.34370500000003 -75.036909999999992 112.79699000000001 9.829971500000001 -23.288984499999994 177.99439000000004 16.452146000000003 27.257529000000002 21.760495000000002 16.251466500000003 33.953877500000011 -31.217033499999996 14.626107000000003 -14.617917499999999 34.475773000000011 2.9132980500000003 3.3982602500000003 13.699428250000002 16.711417500000003 81.796030000000016 137.83510500000003 11.632226500000003 -90.385654999999986 -0.41376194999999993 4.6857924000000013 -28.456674499999995 229.15667500000004
decision_type=2 2 2 2 2 2 2 2 2 2 2 2 2 2 2 2 2 2 2 2 2 2 2 2 2 2 2 2 2 2
left_child=1 2 3 7 13 6 -4 18 9 15 11 14 24 -5 -8 26 -7 21 -1 -14 -16 22 -9 -23 25 29 -6 -26 -29 -3
right_child=-2 12 5 4 8 16 10 17 -10 -11 -12 -13 19 -15 20 -17 -18 -19 -20 -21 -22 23 -24 -25 27 -27 -28 28 -30 -31
leaf_value=0.18230331256223795 -0.078567180296295919 0.10432690090844657 -0.077568601843841511 0.10346127893505651 0.035613327588605075 0.064261846396878888 -0.038475051638633975 -0.063839298251337634 -0.061879177871635188 -0.050563923372653641 -0.052551625890475219 -0.092682336553932904 -0.059052021462515009 0.00060082972774819861 -0.077760442426634463 -0.093310988115493085 -0.06002268525143184 -0.034615215755633665 -0.072712782588475092 0.12102897900824899 0.16108838716964072 0.14136437449842335 0.094840287315766963 0.032301837404022975 -0.078729616781443648 -0.064641092099334385 0.1322704889215352 0.1704785241294195 -0.077282224085769444 -0.094319313634837726
leaf_weight=4.5820985734462729 302.7652235403657 30.188546061515808 52.905483432114124 260.5956651866436 47.620882213115692 20.152523934841156 10.359589293599127 15.401529818773268 154.62153123319149 66.375627487897873 21.869817480444908 8.800914488732813 11.29089752584696 39.372587010264397 4.2448562234640113 10.973702967166899 278.57316517084837 14.685795575380324 31.132424227893353 19.184790417551994 71.530932895839214 197.07897256314754 145.80837471038103 27.806586146354675 288.51782175898552 80.533640414476395 45.334919810295105 6.5819015055894852 6.0983710959553701 5.7751278504729262
leaf_count=18 2400 138 394 921 214 79 56 68 1008 405 143 62 74 190 22 75 1842 82 185 76 253 650 513 108 2130 529 179 33 40 37
internal_value=0.00127088 0.0134914 0.0324847 0.056903 0.0331729 -0.0228426 0.0278434 0.0908753 -0.0192524 0.0194488 0.0755881 0.105107 -0.0513419 0.0899602 0.125316 0.0641631 -0.0516382 0.102537 -0.0399948 0.054311 0.147708 0.107754 0.0796805 0.127879 -0.0590505 -0.0223268 0.0827534 -0.0732545 0.051322 0.0724278
internal_weight=2280.76 1978 1529.83 1061.39 624.895 468.437 169.712 436.496 324.927 170.305 116.806 94.9363 448.171 299.968 86.1354 103.93 298.726 400.781 35.7145 30.4757 75.7758 386.095 161.21 224.886 417.695 116.497 92.9558 301.198 12.6803 35.9637
internal_count=12924 10524 7467 4616 2992 2851 930 1624 1881 873 536 393 3057 1111 331 468 1921 1421 203 150 275 1339 581 758 2907 704 393 2203 73 175
is_linear=0
shrinkage=0.1


Tree=28
num_leaves=31
num_cat=0
split_feature=10 3 3 9 5 5 9 9 5 3 5 11 8 0 5 6 7 3 11 0 12 12 4 10 1 2 5 1 9 5
split_gain=811.273 220.015 216.023 43.911 66.428 40.8109 32.3217 25.0471 23.5729 21.676 16.1554 49.0032 14.4143 13.5264 12.9603 12.3439 13.2772 12.2778 23.8991 20.7212 11.196 11.1086 7.68754 6.70963 5.7523 6.02728 5.68135 5.48982 5.29155 19.0378
threshold=4.5343918500000013 -10.090672999999997 16.186455000000006 11.312147500000002 12.774333000000002 -17.659906999999993 -6.9057206499999984 9.8739455000000014 12.024447000000002 -27.920201499999997 8.9763000000000019 1.6702505000000001 7.6223841000000006 -177.39219999999997 -15.571463749999998 14.754204000000001 4.209127500000001 8.725059250000001 1.8603254000000002 -181.34495499999997 8.9733247500000015 4.8399520000000011 3.3982602500000003 8.7310670000000012 219.10340500000004 -19.353218999999996 0.35906067500000005 172.32641000000004 5.120009200000001 8.7519805000000019
decision_type=2 2 2 2 2 2 2 2 2 2 2 2 2 2 2 2 2 2 2 2 2 2 2 2 2 2 2 2 2 2
left_child=1 5 6 17 26 -1 14 20 22 -7 24 -12 13 -11 -2 16 -13 18 28 21 -4 -20 -9 -18 -8 -26 -5 -10 -3 -30
right_child=2 3 7 4 -6 9 10 8 27 12 11 15 -14 -15 -16 -17 23 -19 19 -21 -22 -23 -24 -25 25 -27 -28 -29 29 -31
leaf_value=0.15612131907457294 0.14324231492398271 -0.079142861040104498 -0.071521800402359212 0.1585710863978749 -0.074357999448543363 0.16070168779840904 0.15696599878994241 0.2046341784153797 -0.088027076110878247 -0.067764722809418004 -0.070903805551217544 0.18483692186596368 0.094246102639974932 0.14196343139974205 -0.051542168712751871 0.1569251975100317 -0.058608402909129442 -0.082567131958543066 -0.068349638616087199 0.16769161931118917 0.092530194451132197 0.07806693933464251 0.043435160821290314 0.097192865972505066 0.023443316399045986 0.15581119596099335 0.061353142187073217 0.09433667409648254 0.17379448592201882 -0.088368772645420063
leaf_weight=46.615097567439079 4.7007155492901829 103.98524934798479 67.387039661407471 18.530746750533584 40.653455793857574 9.5708443969488126 269.07615166902542 8.3996402770280856 8.5931853353977186 25.838198006153107 13.445331200957297 5.8578308597207096 10.393953293561934 3.4905975759029415 12.497818164527414 61.099385306239128 7.2845498174428922 670.71808380633593 15.745626941323286 7.8308672383427611 4.4337639287114134 7.7235571965575209 4.5669700503349295 4.4543012678623199 6.7717445194721222 6.991691514849661 8.8973750993609411 2.0432578846812239 3.8972336053848258 9.5762881115078908
leaf_count=163 18 1082 738 63 470 32 896 30 87 205 116 22 52 18 98 197 48 8080 124 38 25 37 29 19 39 25 40 15 23 95
internal_value=-0.00255322 -0.0548434 0.102913 -0.0703915 0.00677735 0.0890417 0.135745 -0.0320239 0.057346 0.025607 0.141894 0.105527 -0.00694291 -0.0428037 0.00169647 0.135671 0.0618715 -0.0768026 -0.0508118 0.0268344 -0.0613943 -0.0201649 0.147858 0.000510312 0.153741 0.0906849 0.127035 -0.052995 -0.0715027 -0.0125377
